{"type":"LSTM","options":{"inputSize":17,"inputRange":17,"hiddenLayers":[20,20],"outputSize":17,"decayRate":0.999,"smoothEps":1e-8,"regc":0.000001,"clipval":5,"maxPredictionLength":100,"dataFormatter":{"values":["     _   _   _   _   _   _   _       _   _   _  .|_| |_| |_  |_|   | |_   _| |_  |_| |_  |_   _| .  | |_|  _|   |   |  _|  _|  _|   | |_|  _|  _| ."," _   _           _   _   _           _   _      .|_  |_  |_| |_| | | |_   _| |_|   | |_|   | |_| . _| |_|   |   | |_|  _|  _|   |   |   |   |   | ."," _   _       _   _       _   _   _   _   _  . _| | |   | |_|   | |_| |_  |_  |_  |_  | | .|_  |_|   | |_|   |   | |_| |_|  _|  _| |_| ."," _   _   _           _   _   _   _   _       _  .  | |_|  _|   | |_|  _| |_  |_|   | |_    | |_  .  | |_| |_    |   |  _| |_|   |   |  _|   | |_| ."," _   _   _       _       _   _   _   _       _  . _| |_| | | |_| | |   | |_   _|   | |_| |_|  _| .|_  |_| |_|   | |_|   |  _| |_    | |_|   |  _| ."," _   _   _   _       _   _   _   _   _   _      . _| |_  |_| |_|   |  _|  _|   | | | |_  | | |_| . _| |_| |_| |_|   | |_  |_    | |_| |_| |_|   | ."," _   _   _   _   _       _           _   _   _  .  |  _|   |   |  _| |_| |_| |_| |_|  _| |_  | | .  |  _|   |   |  _|   | |_|   |   |  _|  _| |_| ."," _   _   _   _   _   _           _       _   _  .|_|  _| |_| |_  |_  |_| |_|   |   | |_| |_|  _| .|_|  _|   | |_| |_| |_|   |   |   |   |   |  _| ."," _   _   _   _   _   _   _   _   _   _   _  .|_| |_  |_  |_   _| |_| |_    | |_| | |   | .  | |_|  _|  _|  _|   |  _|   |   | |_|   | .","20187466550","280401527843","368812270604","485975354653","564405341974","737734844350","782143697516","839668417493","96553957907"],"indexTable":{"0":5,"1":6,"2":4,"3":12,"4":9,"5":11,"6":10,"7":8,"8":7,"9":13," ":0,"_":1,".":2,"|":3,"stop-input":14,"start-output":15,"unrecognized":16},"characterTable":{"0":" ","1":"_","2":".","3":"|","4":"2","5":"0","6":"1","7":"8","8":"7","9":"4","10":"6","11":"5","12":"3","13":"9","14":null,"15":null,"16":null},"characters":[" ","_",".","|","2","0","1","8","7","4","6","5","3","9","stop-input","start-output","unrecognized"],"specialIndexes":[14,15,16]}},"input":{"rows":18,"columns":17,"weights":{"0":0.27256661653518677,"1":-0.02493281103670597,"2":-1.0045859813690186,"3":-0.5806401968002319,"4":0.01972026377916336,"5":0.34612512588500977,"6":-0.08042876422405243,"7":0.5033836960792542,"8":-0.29904672503471375,"9":0.16255442798137665,"10":0.46339482069015503,"11":0.007567107677459717,"12":0.22004739940166473,"13":0.03336688503623009,"14":0.8795047402381897,"15":0.19170014560222626,"16":-0.4676528573036194,"17":0.6905155777931213,"18":-0.33656182885169983,"19":-0.8788797855377197,"20":-0.11115965247154236,"21":-0.6201604008674622,"22":0.9710009694099426,"23":-1.2510710954666138,"24":0.535148561000824,"25":-1.0675277709960938,"26":-0.14248138666152954,"27":-0.6878278851509094,"28":-1.120997667312622,"29":-0.3053295314311981,"30":-0.1634829342365265,"31":-0.347614049911499,"32":0.02896134927868843,"33":-0.2146487683057785,"34":-2.5875658988952637,"35":1.2072292566299438,"36":-4.2270097732543945,"37":-6.16975736618042,"38":0.23867125809192657,"39":-3.1898813247680664,"40":2.600212574005127,"41":-7.360867500305176,"42":1.9993481636047363,"43":-2.8546085357666016,"44":6.197651386260986,"45":7.484911918640137,"46":-1.105967402458191,"47":4.661597728729248,"48":6.705533981323242,"49":-0.6540058255195618,"50":0.624775230884552,"51":-1.501104474067688,"52":-2.8373594284057617,"53":0.17966477572917938,"54":-1.8526296615600586,"55":-4.157690525054932,"56":2.31526255607605,"57":-1.7044731378555298,"58":2.954101085662842,"59":0.41512125730514526,"60":-0.09094098210334778,"61":-3.1604361534118652,"62":-4.293293476104736,"63":-1.50320303440094,"64":0.17050060629844666,"65":-1.433903694152832,"66":2.170382261276245,"67":-1.6541986465454102,"68":0.9858548641204834,"69":-0.2021416872739792,"70":-0.4805896580219269,"71":-0.19909663498401642,"72":-2.14039945602417,"73":1.158989667892456,"74":0.2086794227361679,"75":0.9838705062866211,"76":-0.6760608553886414,"77":-1.1566357612609863,"78":-0.68353271484375,"79":-1.114259958267212,"80":1.4559024572372437,"81":1.2844558954238892,"82":-0.6169242262840271,"83":0.5265607833862305,"84":-0.21186399459838867,"85":0.48869848251342773,"86":4.054871082305908,"87":0.3596215546131134,"88":5.967522144317627,"89":4.293066024780273,"90":-1.9244314432144165,"91":0.11460383236408234,"92":-1.4637318849563599,"93":-3.1025943756103516,"94":4.358448505401611,"95":0.3836764395236969,"96":1.5073963403701782,"97":1.702889323234558,"98":-1.2613319158554077,"99":-1.7866756916046143,"100":-1.6305038928985596,"101":1.7582041025161743,"102":1.3040761947631836,"103":3.522359848022461,"104":1.0851608514785767,"105":1.8393771648406982,"106":4.952194690704346,"107":-2.2296640872955322,"108":-0.24697454273700714,"109":-3.665558338165283,"110":3.124760627746582,"111":0.7822245955467224,"112":1.752837896347046,"113":5.31833028793335,"114":-0.2596883475780487,"115":0.16499988734722137,"116":-0.5930163264274597,"117":-1.5070735216140747,"118":1.1358277797698975,"119":-2.5026187896728516,"120":-0.2688433825969696,"121":-1.6578630208969116,"122":-1.5396915674209595,"123":-0.3225288689136505,"124":-0.4386395812034607,"125":-1.2909799814224243,"126":-1.883909821510315,"127":0.4078313708305359,"128":-0.2663858234882355,"129":0.04626602306962013,"130":1.660098910331726,"131":-0.43395474553108215,"132":-0.3635552227497101,"133":1.0191514492034912,"134":-0.5829609036445618,"135":0.5795413255691528,"136":-3.287243366241455,"137":2.0915822982788086,"138":0.5552356243133545,"139":0.3377414643764496,"140":0.7920259237289429,"141":-1.782692790031433,"142":0.8281068205833435,"143":-2.5023696422576904,"144":-0.23112165927886963,"145":-0.536541223526001,"146":1.4801815748214722,"147":1.976417064666748,"148":-1.8892604112625122,"149":0.10013282299041748,"150":0.8649789094924927,"151":-0.25349485874176025,"152":0.7975903153419495,"153":-0.5528664588928223,"154":0.6292793154716492,"155":-0.5048568844795227,"156":0.5995035767555237,"157":0.7397777438163757,"158":-0.5779649019241333,"159":-0.02877158671617508,"160":-0.9355053901672363,"161":-1.41938316822052,"162":1.586815595626831,"163":-0.3632180988788605,"164":0.5929575562477112,"165":0.6769512891769409,"166":-0.2250760942697525,"167":0.11535746604204178,"168":-1.2726167440414429,"169":0.37125498056411743,"170":1.9591373205184937,"171":-1.0692718029022217,"172":-1.1753448247909546,"173":0.5385063290596008,"174":0.05264119431376457,"175":0.5928833484649658,"176":0.7088020443916321,"177":0.3397711217403412,"178":-2.700352907180786,"179":-1.1904140710830688,"180":1.6361461877822876,"181":-0.10550900548696518,"182":0.5836732983589172,"183":-0.11825153231620789,"184":1.3738375902175903,"185":1.4236878156661987,"186":-0.5131797790527344,"187":-0.19627222418785095,"188":0.871316134929657,"189":-1.3699899911880493,"190":-0.8895717859268188,"191":0.42014142870903015,"192":-2.464444637298584,"193":-0.10940703749656677,"194":-2.9733357429504395,"195":-0.8694084286689758,"196":-0.6326698064804077,"197":1.5758042335510254,"198":1.792759656906128,"199":-1.7679367065429688,"200":0.21205207705497742,"201":0.8026050329208374,"202":-1.898392677307129,"203":1.6328816413879395,"204":-0.8400985598564148,"205":0.08164983987808228,"206":0.13654959201812744,"207":-2.4827568531036377,"208":0.1257457584142685,"209":0.38356664776802063,"210":0.4308902621269226,"211":0.467143177986145,"212":0.8650018572807312,"213":1.1369022130966187,"214":0.22168400883674622,"215":-0.3771875202655792,"216":-0.074820376932621,"217":-0.013390323147177696,"218":-0.10387546569108963,"219":-0.561232328414917,"220":-0.15666328370571136,"221":-0.6717539429664612,"222":-0.49105581641197205,"223":0.566386342048645,"224":-2.0391430854797363,"225":-0.2311491072177887,"226":-0.06945346295833588,"227":-0.3509030342102051,"228":-2.197613477706909,"229":1.3450976610183716,"230":1.1140990257263184,"231":0.670212984085083,"232":2.5927820205688477,"233":-0.2010256052017212,"234":0.7054874300956726,"235":0.45761537551879883,"236":0.06113253906369209,"237":0.10981326550245285,"238":-1.1495583057403564,"239":4.390458106994629,"240":-0.6176714897155762,"241":1.2476168870925903,"242":2.4656505584716797,"243":-3.739377498626709,"244":1.665558934211731,"245":-1.163559079170227,"246":-0.12921273708343506,"247":0.9289937615394592,"248":0.7492738962173462,"249":2.1040806770324707,"250":-0.4179462492465973,"251":-0.9432469010353088,"252":-0.08087247610092163,"253":0.4880032241344452,"254":0.4121134877204895,"255":-0.37589842081069946,"256":0.08044076710939407,"257":-0.7765246629714966,"258":-1.3744170665740967,"259":-0.15345895290374756,"260":-0.8597062230110168,"261":-0.015622520819306374,"262":-0.8719727993011475,"263":-1.8652706146240234,"264":1.1131967306137085,"265":-0.7375080585479736,"266":1.0612846612930298,"267":0.9390519857406616,"268":-0.4592786729335785,"269":0.24009191989898682,"270":-1.3845239877700806,"271":0.53481125831604,"272":-1.3273028135299683,"273":2.1855905055999756,"274":-1.4922090768814087,"275":-0.44830530881881714,"276":1.3880460262298584,"277":-3.3679542541503906,"278":0.8711429238319397,"279":-3.028604745864868,"280":0.634488582611084,"281":0.28804782032966614,"282":0.9849061965942383,"283":2.539076566696167,"284":0.9553613662719727,"285":-1.5431772470474243,"286":2.057490825653076,"287":-3.253971576690674,"288":3.0183143615722656,"289":-0.061178162693977356,"290":-0.07777467370033264,"291":-0.061350561678409576,"292":-0.029300007969141006,"293":0.04764090105891228,"294":0.0031889332458376884,"295":0.0015341013204306364,"296":-0.06260574609041214,"297":0.021777823567390442,"298":0.050520531833171844,"299":-0.07921388745307922,"300":-0.07181207090616226,"301":-0.030534816905856133,"302":0.03219171613454819,"303":0.011331858113408089,"304":0.06158033758401871,"305":0.008330711163580418}},"hiddenLayers":[{"inputMatrix":{"rows":20,"columns":17,"weights":{"0":-1.69240140914917,"1":1.9061172008514404,"2":-0.10571206361055374,"3":-0.641829252243042,"4":1.096791386604309,"5":-0.05651473253965378,"6":-0.45098575949668884,"7":-0.8593624234199524,"8":-0.17781676352024078,"9":1.326860785484314,"10":1.0556328296661377,"11":0.4702340066432953,"12":-0.722758948802948,"13":-0.5999556183815002,"14":0.02662978135049343,"15":-2.3382394313812256,"16":0.5248717069625854,"17":-0.9396848082542419,"18":-1.0624593496322632,"19":0.9425804615020752,"20":-2.0032382011413574,"21":-0.5009059906005859,"22":0.8691556453704834,"23":-1.9041074514389038,"24":-0.3216817378997803,"25":0.18966323137283325,"26":-1.003438949584961,"27":-0.13680464029312134,"28":0.16346895694732666,"29":-1.8838502168655396,"30":1.586195945739746,"31":-1.0120375156402588,"32":0.945002555847168,"33":-0.9359997510910034,"34":0.3022882342338562,"35":-1.272836446762085,"36":-0.24831251800060272,"37":-1.5597435235977173,"38":0.05659453943371773,"39":1.003752589225769,"40":-1.7032946348190308,"41":0.5444090366363525,"42":-0.7287074327468872,"43":-0.5137449502944946,"44":-0.16455991566181183,"45":-0.07036633789539337,"46":-1.834411859512329,"47":0.5916941165924072,"48":-0.06522201001644135,"49":0.7653716206550598,"50":-0.7456746697425842,"51":-0.27304524183273315,"52":0.2334504872560501,"53":0.9619424939155579,"54":-0.6004589200019836,"55":-0.46855810284614563,"56":1.2845886945724487,"57":-1.5512226819992065,"58":0.9340904355049133,"59":-0.7014096975326538,"60":-0.9326978325843811,"61":-1.230539083480835,"62":-2.063349962234497,"63":-1.0904619693756104,"64":1.48472261428833,"65":-2.914571523666382,"66":-0.13065817952156067,"67":-1.4683523178100586,"68":1.2089076042175293,"69":-1.2305922508239746,"70":-0.6868554949760437,"71":-0.9356352090835571,"72":-0.2615092992782593,"73":1.326454997062683,"74":1.2587233781814575,"75":-2.0797488689422607,"76":-0.1038232147693634,"77":-3.0531399250030518,"78":3.752319097518921,"79":0.8755743503570557,"80":-0.38247162103652954,"81":0.9774401783943176,"82":2.2033278942108154,"83":1.6231845617294312,"84":-1.2689359188079834,"85":-1.2758152484893799,"86":0.28580957651138306,"87":0.3312795162200928,"88":-0.8177611231803894,"89":-0.4570639431476593,"90":-0.1898699253797531,"91":0.6437053680419922,"92":0.7276946306228638,"93":1.610549807548523,"94":0.24024376273155212,"95":-0.692358136177063,"96":0.3921245336532593,"97":0.4018973112106323,"98":0.25941431522369385,"99":0.5693123936653137,"100":-0.21926310658454895,"101":0.01648777723312378,"102":-1.2152858972549438,"103":2.383744478225708,"104":-0.3201730251312256,"105":-0.7783105373382568,"106":0.22353032231330872,"107":-1.4640276432037354,"108":1.0375072956085205,"109":0.4339860677719116,"110":1.5681713819503784,"111":0.9667033553123474,"112":0.5183961391448975,"113":-0.2283603399991989,"114":1.540997862815857,"115":-0.8977272510528564,"116":0.2913445830345154,"117":-2.2109880447387695,"118":2.255079984664917,"119":0.09232039004564285,"120":-1.9550256729125977,"121":-0.28487205505371094,"122":-2.4142227172851562,"123":0.13468913733959198,"124":1.3301200866699219,"125":-1.4955915212631226,"126":0.9095635414123535,"127":1.1554125547409058,"128":1.9952082633972168,"129":-1.1624462604522705,"130":-0.5322861075401306,"131":-0.6801702380180359,"132":-1.3371491432189941,"133":-0.10605999082326889,"134":1.1894837617874146,"135":-0.8664565682411194,"136":-1.0187041759490967,"137":0.10506638139486313,"138":-0.06596881151199341,"139":-1.5522098541259766,"140":-1.0944969654083252,"141":0.05434340611100197,"142":-0.9641112685203552,"143":-1.097209095954895,"144":0.11171769350767136,"145":-0.759186327457428,"146":-0.341339647769928,"147":-0.08664653450250626,"148":-1.1637169122695923,"149":1.039245843887329,"150":-0.7638476490974426,"151":-0.3156382143497467,"152":0.025730863213539124,"153":-0.6372933983802795,"154":3.600738048553467,"155":0.03526017814874649,"156":-1.019230604171753,"157":1.52475905418396,"158":-1.3059569597244263,"159":-0.10241658240556717,"160":-0.0635857880115509,"161":-0.08764602988958359,"162":0.6978012919425964,"163":0.06200068071484566,"164":1.3578251600265503,"165":-0.5585728287696838,"166":0.23923566937446594,"167":-0.5890754461288452,"168":-3.681107759475708,"169":0.5753644704818726,"170":0.047373075038194656,"171":-1.571356177330017,"172":-0.7500154376029968,"173":-1.0490858554840088,"174":-0.8729732036590576,"175":1.3897459506988525,"176":-1.4989923238754272,"177":1.1513643264770508,"178":-2.401987075805664,"179":-1.30898916721344,"180":-0.8755984902381897,"181":-4.0642571449279785,"182":0.7538114786148071,"183":-1.2317560911178589,"184":-1.1228708028793335,"185":1.3224540948867798,"186":1.110836386680603,"187":-0.16029296815395355,"188":0.8976009488105774,"189":-0.8579022288322449,"190":0.22854112088680267,"191":1.1515508890151978,"192":-1.2208303213119507,"193":-0.11602868884801865,"194":-1.7309932708740234,"195":-1.1393852233886719,"196":0.9408818483352661,"197":2.1528561115264893,"198":1.8079942464828491,"199":0.3506845235824585,"200":0.021562835201621056,"201":0.7238509058952332,"202":-0.672777533531189,"203":0.8444207906723022,"204":1.7936991453170776,"205":1.7100987434387207,"206":-0.57704758644104,"207":-1.5969794988632202,"208":-0.2726447880268097,"209":-1.1877549886703491,"210":-2.29579758644104,"211":-1.1468374729156494,"212":-1.6131306886672974,"213":-0.35501083731651306,"214":-2.4576711654663086,"215":-0.22282694280147552,"216":-0.3465169072151184,"217":-0.38628560304641724,"218":-1.454035758972168,"219":-2.587346076965332,"220":1.8639928102493286,"221":-1.8716703653335571,"222":0.7250266671180725,"223":-0.5318790078163147,"224":0.04264071583747864,"225":-0.5529760122299194,"226":-0.21869298815727234,"227":0.5694187879562378,"228":0.1261061131954193,"229":-0.30931466817855835,"230":-0.5247028470039368,"231":0.25902828574180603,"232":0.07208587974309921,"233":0.8742440938949585,"234":0.2022116333246231,"235":0.17349085211753845,"236":0.24649940431118011,"237":0.3203417956829071,"238":-0.5619552135467529,"239":0.16018453240394592,"240":0.3701950013637543,"241":-1.1398268938064575,"242":0.6574841141700745,"243":0.7848783731460571,"244":-0.3225613832473755,"245":-1.1380236148834229,"246":-0.3618101179599762,"247":-1.0142273902893066,"248":-0.32652202248573303,"249":-1.3873193264007568,"250":-0.008215351961553097,"251":0.2820717394351959,"252":-0.8820720314979553,"253":0.8919684886932373,"254":-0.011550338007509708,"255":-0.5129983425140381,"256":0.6851070523262024,"257":0.5419313907623291,"258":-1.5204191207885742,"259":-0.6732745170593262,"260":1.2339798212051392,"261":-1.4070825576782227,"262":1.0371636152267456,"263":0.22762039303779602,"264":-0.02741517499089241,"265":-0.9060098528862,"266":-1.6963261365890503,"267":-1.3292828798294067,"268":1.4112943410873413,"269":-2.3881285190582275,"270":-1.0324386358261108,"271":-1.055009365081787,"272":-1.0252496004104614,"273":1.363478660583496,"274":-0.24610912799835205,"275":-0.42779314517974854,"276":1.3945363759994507,"277":-0.4064481854438782,"278":0.4348462224006653,"279":-0.34641650319099426,"280":0.4794979393482208,"281":-0.5232110619544983,"282":0.547462522983551,"283":0.31439363956451416,"284":0.09498369693756104,"285":-0.033064909279346466,"286":0.06635395437479019,"287":-0.9169041514396667,"288":0.18536610901355743,"289":-1.1084133386611938,"290":-0.3790162205696106,"291":1.2736958265304565,"292":1.315942406654358,"293":-0.386928915977478,"294":0.1712716817855835,"295":-0.7082184553146362,"296":-1.1198158264160156,"297":0.24486148357391357,"298":0.29359951615333557,"299":-0.4515760540962219,"300":0.019730469211935997,"301":-1.1393729448318481,"302":0.9826439023017883,"303":-1.0544785261154175,"304":0.310777485370636,"305":-1.0988539457321167,"306":-0.9492907524108887,"307":0.43302038311958313,"308":-0.49880263209342957,"309":0.6527081727981567,"310":0.36261501908302307,"311":-0.6332796216011047,"312":0.38189706206321716,"313":-0.40431782603263855,"314":-0.5684964060783386,"315":0.9651328921318054,"316":0.9300734996795654,"317":0.4877752661705017,"318":0.9854826927185059,"319":-0.7260028123855591,"320":0.37133708596229553,"321":-0.8149239420890808,"322":1.384444236755371,"323":-1.026472568511963,"324":-0.020475953817367554,"325":-0.45047760009765625,"326":0.1213412657380104,"327":-0.25456178188323975,"328":-0.19051827490329742,"329":-3.0192818641662598,"330":-0.6158299446105957,"331":-2.2165281772613525,"332":-2.189394950866699,"333":-0.7372482419013977,"334":0.6762263178825378,"335":-2.528031826019287,"336":0.6874563097953796,"337":-0.409608393907547,"338":-0.12178030610084534,"339":-0.06227599456906319}},"inputHidden":{"rows":20,"columns":20,"weights":{"0":-0.8752115964889526,"1":-1.6030951738357544,"2":1.2432568073272705,"3":2.1166276931762695,"4":1.1584877967834473,"5":0.7994265556335449,"6":0.016648871824145317,"7":-1.3452391624450684,"8":-0.2335677146911621,"9":0.25741416215896606,"10":-0.19456321001052856,"11":-0.31776368618011475,"12":0.2994323968887329,"13":0.24555066227912903,"14":-0.15619510412216187,"15":-2.204535961151123,"16":-0.630085289478302,"17":-0.9666174054145813,"18":-0.7148110270500183,"19":1.7441604137420654,"20":0.6704486012458801,"21":-0.7606465220451355,"22":0.06851886957883835,"23":-0.1113898903131485,"24":0.24156348407268524,"25":-0.12623335421085358,"26":3.326843500137329,"27":2.9754042625427246,"28":-0.2614971995353699,"29":1.804433822631836,"30":0.11413031071424484,"31":0.567122220993042,"32":2.919015407562256,"33":0.16625569760799408,"34":-1.5654246807098389,"35":0.44705823063850403,"36":-0.17108921706676483,"37":-0.012079225853085518,"38":2.4484496116638184,"39":0.027710245922207832,"40":1.0302283763885498,"41":-0.47571802139282227,"42":0.8942673206329346,"43":-1.1904376745224,"44":2.476853370666504,"45":-0.47701433300971985,"46":2.0769896507263184,"47":2.1755106449127197,"48":1.2180501222610474,"49":1.896576166152954,"50":0.23745279014110565,"51":1.5610218048095703,"52":-0.6250878572463989,"53":1.9156781435012817,"54":-0.738881528377533,"55":0.9994038939476013,"56":0.8657777309417725,"57":1.119462251663208,"58":1.048690915107727,"59":-0.4498080611228943,"60":0.1642705500125885,"61":-2.823265790939331,"62":0.040459759533405304,"63":-2.986647129058838,"64":1.3858848810195923,"65":0.8815402984619141,"66":1.9204081296920776,"67":1.4989930391311646,"68":0.4871467351913452,"69":0.6442074775695801,"70":-0.46021711826324463,"71":1.5156142711639404,"72":0.702041506767273,"73":0.8960539102554321,"74":-0.6994727849960327,"75":1.9981489181518555,"76":-0.13793465495109558,"77":0.9044577479362488,"78":2.5380711555480957,"79":-1.5170410871505737,"80":-2.130204439163208,"81":-1.6216708421707153,"82":0.005339877214282751,"83":-0.8527287244796753,"84":2.37322998046875,"85":-0.7585786581039429,"86":-2.177793502807617,"87":1.116178035736084,"88":-0.5804554224014282,"89":-0.23687264323234558,"90":0.36586499214172363,"91":-0.004117167554795742,"92":2.48065185546875,"93":-0.8642250299453735,"94":0.5617448091506958,"95":0.8564463257789612,"96":0.4748089015483856,"97":1.2183759212493896,"98":-0.2557733654975891,"99":-1.305346131324768,"100":-0.08668512850999832,"101":-1.1879737377166748,"102":0.749061644077301,"103":-1.3226888179779053,"104":4.06623649597168,"105":-0.39171677827835083,"106":-2.2571542263031006,"107":-2.0670249462127686,"108":0.7402451634407043,"109":1.4930616617202759,"110":1.6129682064056396,"111":1.3893555402755737,"112":3.0427603721618652,"113":0.8241745233535767,"114":-1.2545664310455322,"115":0.7938401699066162,"116":0.8671132922172546,"117":2.546259641647339,"118":1.7987380027770996,"119":-0.18961532413959503,"120":-0.07029015570878983,"121":0.2628808319568634,"122":0.08892956376075745,"123":1.1191412210464478,"124":-0.6149535775184631,"125":-0.5328912138938904,"126":-1.2098640203475952,"127":3.3613061904907227,"128":-2.3597352504730225,"129":-1.1037628650665283,"130":-1.6956340074539185,"131":-0.6352198123931885,"132":-1.6252416372299194,"133":0.47956839203834534,"134":-2.0685224533081055,"135":-1.2933838367462158,"136":0.4932692348957062,"137":-1.472657561302185,"138":-2.2053115367889404,"139":2.431121349334717,"140":1.0632075071334839,"141":4.284377574920654,"142":-2.6137313842773438,"143":0.2819444537162781,"144":-2.58025860786438,"145":0.9048645496368408,"146":-1.8710851669311523,"147":-1.0638973712921143,"148":1.080647587776184,"149":-0.17397913336753845,"150":-2.3215651512145996,"151":0.7996121048927307,"152":1.0892643928527832,"153":-0.544199526309967,"154":-0.5030964612960815,"155":-0.8961123824119568,"156":0.5982785224914551,"157":-1.3729112148284912,"158":-2.0010509490966797,"159":1.3691614866256714,"160":-0.021423686295747757,"161":-0.5779896974563599,"162":-1.5172243118286133,"163":-1.6434664726257324,"164":1.9321441650390625,"165":0.007311148103326559,"166":-1.3839013576507568,"167":0.31181004643440247,"168":-0.5375970005989075,"169":1.5708816051483154,"170":0.9561156630516052,"171":0.9029829502105713,"172":-0.3102053105831146,"173":-0.5557756423950195,"174":0.337229460477829,"175":1.2717496156692505,"176":-0.2515144646167755,"177":3.9710609912872314,"178":2.2221412658691406,"179":1.4655014276504517,"180":-0.4173634946346283,"181":-4.070002555847168,"182":0.19901476800441742,"183":-1.046142816543579,"184":0.1973852813243866,"185":-1.4309508800506592,"186":0.2511456608772278,"187":-0.44170233607292175,"188":-0.1274058222770691,"189":-1.8609222173690796,"190":1.8954670429229736,"191":2.360581159591675,"192":0.6932489275932312,"193":0.5599927306175232,"194":-0.8751513957977295,"195":0.8704038262367249,"196":2.4382593631744385,"197":0.5630201101303101,"198":-0.17475952208042145,"199":-0.9099142551422119,"200":0.07781573385000229,"201":1.361452579498291,"202":0.45595118403434753,"203":-0.958419680595398,"204":1.103633999824524,"205":-2.3348400592803955,"206":-0.9944032430648804,"207":0.12295124679803848,"208":-2.4344983100891113,"209":0.3475833833217621,"210":0.40656578540802,"211":-2.3650972843170166,"212":-2.143091917037964,"213":-0.8318853974342346,"214":2.0391204357147217,"215":0.7513006329536438,"216":0.481909841299057,"217":1.5470203161239624,"218":-1.4004887342453003,"219":0.316191703081131,"220":0.4534946084022522,"221":-0.7333024740219116,"222":-1.0825328826904297,"223":-0.5375558733940125,"224":0.2579230070114136,"225":0.799731969833374,"226":0.7842028737068176,"227":-0.12534332275390625,"228":1.2258237600326538,"229":-0.7361061573028564,"230":-0.6386637091636658,"231":0.28479036688804626,"232":1.242725133895874,"233":0.1853122115135193,"234":-1.5137584209442139,"235":0.23047105967998505,"236":-0.09378677606582642,"237":0.7021394968032837,"238":-0.8002654314041138,"239":0.4667019248008728,"240":0.8194114565849304,"241":1.1001861095428467,"242":1.9310615062713623,"243":-0.6281833052635193,"244":-0.15130314230918884,"245":0.027576303109526634,"246":0.8576327562332153,"247":1.8925366401672363,"248":-1.3454513549804688,"249":0.8429371118545532,"250":-0.6036643981933594,"251":-0.3498482406139374,"252":-4.746905326843262,"253":-2.0262951850891113,"254":-2.878214120864868,"255":0.19035577774047852,"256":-0.37974900007247925,"257":-0.7201255559921265,"258":-0.5367904901504517,"259":-1.2216851711273193,"260":2.1346476078033447,"261":-0.3799286484718323,"262":2.4498138427734375,"263":0.38905683159828186,"264":1.8967432975769043,"265":-0.5208367109298706,"266":-0.5476713180541992,"267":1.3974612951278687,"268":-0.675474226474762,"269":0.49491509795188904,"270":2.71175479888916,"271":1.4176841974258423,"272":4.094326972961426,"273":2.7380051612854004,"274":0.37133562564849854,"275":0.37979990243911743,"276":1.6777464151382446,"277":2.826354742050171,"278":1.2079049348831177,"279":-0.9569188952445984,"280":-4.12079381942749,"281":-1.2920516729354858,"282":0.2679383456707001,"283":-2.0924465656280518,"284":2.0554943084716797,"285":-1.4152528047561646,"286":0.9850061535835266,"287":2.160858631134033,"288":-1.7956125736236572,"289":1.1577256917953491,"290":2.1873831748962402,"291":-2.30428409576416,"292":-1.0360071659088135,"293":-0.7469184994697571,"294":1.5533970594406128,"295":1.9088102579116821,"296":-2.5806925296783447,"297":3.4618585109710693,"298":0.6308481693267822,"299":-1.4770334959030151,"300":0.3140190839767456,"301":-2.889265775680542,"302":-1.0674830675125122,"303":-1.3017491102218628,"304":1.8722220659255981,"305":0.8367127776145935,"306":1.1260472536087036,"307":2.6851322650909424,"308":0.3419203460216522,"309":-0.39596471190452576,"310":0.05204683169722557,"311":1.0071024894714355,"312":0.5349660515785217,"313":0.12543350458145142,"314":-0.9934303760528564,"315":1.0818854570388794,"316":0.2508770227432251,"317":1.748681664466858,"318":2.3040504455566406,"319":-0.20360717177391052,"320":0.22384126484394073,"321":0.7870337963104248,"322":-2.4862523078918457,"323":0.537203848361969,"324":-1.7597081661224365,"325":1.149854063987732,"326":-2.692598342895508,"327":-0.2083343267440796,"328":1.7395217418670654,"329":-1.2881145477294922,"330":-0.5609937310218811,"331":-0.16226398944854736,"332":0.7131605744361877,"333":-1.6922986507415771,"334":-0.3079374432563782,"335":-0.49875184893608093,"336":-0.22857140004634857,"337":-0.8878810405731201,"338":-1.8439104557037354,"339":2.6351892948150635,"340":-2.405482292175293,"341":-2.2244060039520264,"342":-0.7021646499633789,"343":-0.956021249294281,"344":4.454665660858154,"345":-1.0185987949371338,"346":-2.5045509338378906,"347":0.8360205292701721,"348":-0.9613239765167236,"349":0.6331304311752319,"350":0.9310796856880188,"351":0.926230251789093,"352":0.3836519420146942,"353":-2.8733267784118652,"354":0.09588078409433365,"355":0.6947397589683533,"356":-2.380718231201172,"357":2.844306230545044,"358":0.8772937059402466,"359":-0.4565331041812897,"360":-1.2575724124908447,"361":-2.699937105178833,"362":-0.4504952132701874,"363":-0.6328895688056946,"364":0.9069340825080872,"365":-4.145925998687744,"366":-0.2502620816230774,"367":-0.700245201587677,"368":-1.4421175718307495,"369":-3.1318418979644775,"370":1.0218417644500732,"371":-0.9251238107681274,"372":-0.41904035210609436,"373":-0.8153831958770752,"374":-0.7869476675987244,"375":0.9078885912895203,"376":-1.687651515007019,"377":1.0518189668655396,"378":2.336698532104492,"379":-0.8146196603775024,"380":-0.14781686663627625,"381":-0.29002732038497925,"382":-1.6177650690078735,"383":-0.41292503476142883,"384":0.06983565539121628,"385":0.018227411434054375,"386":2.730452299118042,"387":0.5940188765525818,"388":1.606718897819519,"389":0.02810627780854702,"390":-1.7228775024414062,"391":-0.1310713291168213,"392":0.9528392553329468,"393":0.35111987590789795,"394":-2.548985719680786,"395":-0.01964709907770157,"396":0.4123983085155487,"397":0.41003310680389404,"398":2.640212297439575,"399":1.2219239473342896}},"inputBias":{"rows":20,"columns":1,"weights":{"0":1.1724226474761963,"1":-0.314676433801651,"2":2.6116256713867188,"3":-1.8432825803756714,"4":0.4235319495201111,"5":-0.657149076461792,"6":3.7757647037506104,"7":1.3221088647842407,"8":-1.2160675525665283,"9":1.0330933332443237,"10":-1.2377067804336548,"11":-0.37397027015686035,"12":-0.91163569688797,"13":1.523378849029541,"14":-1.4752224683761597,"15":-2.4584410190582275,"16":-2.3232975006103516,"17":-2.8248260021209717,"18":2.5298001766204834,"19":-4.360100269317627}},"forgetMatrix":{"rows":20,"columns":17,"weights":{"0":0.07393158972263336,"1":0.9819685816764832,"2":-0.5916726589202881,"3":-0.11088108271360397,"4":1.220475196838379,"5":-0.3769739866256714,"6":0.32067131996154785,"7":-0.4226156771183014,"8":0.7184162735939026,"9":0.6260871887207031,"10":0.16993583738803864,"11":0.48897436261177063,"12":0.8208665251731873,"13":-0.7049770951271057,"14":0.2652251720428467,"15":-0.6545905470848083,"16":0.4955234229564667,"17":1.4654674530029297,"18":-1.235000491142273,"19":0.4027530550956726,"20":-0.892069399356842,"21":-0.9625047445297241,"22":2.430683135986328,"23":-0.5704962611198425,"24":2.2208852767944336,"25":1.134481430053711,"26":-2.1795828342437744,"27":-1.0212857723236084,"28":-2.6469643115997314,"29":-0.696633517742157,"30":0.1867852509021759,"31":-0.5800238847732544,"32":2.0230765342712402,"33":-1.0742594003677368,"34":2.815260887145996,"35":0.4645747244358063,"36":0.5056127905845642,"37":1.052537202835083,"38":1.5256658792495728,"39":1.3066507577896118,"40":-1.2412017583847046,"41":-0.576917827129364,"42":-1.4651190042495728,"43":0.006114562042057514,"44":0.7956408262252808,"45":-1.104731559753418,"46":-0.8670071363449097,"47":-0.3197765648365021,"48":-1.2345221042633057,"49":-0.7979722619056702,"50":-0.8798747062683105,"51":0.4784766733646393,"52":-0.7134576439857483,"53":0.31512728333473206,"54":0.011022047139704227,"55":-0.8020592927932739,"56":0.9848596453666687,"57":-1.1567537784576416,"58":0.7814303636550903,"59":-0.3459668457508087,"60":-1.046091079711914,"61":-1.2295440435409546,"62":-0.8925454616546631,"63":-1.0367727279663086,"64":1.0683988332748413,"65":-1.012913703918457,"66":0.7190141081809998,"67":-0.9743054509162903,"68":-0.8231673836708069,"69":0.7271186709403992,"70":0.6634553074836731,"71":-1.4775484800338745,"72":-0.32032540440559387,"73":2.125356435775757,"74":-0.7104032039642334,"75":2.122385025024414,"76":0.8181635737419128,"77":0.09547093510627747,"78":-0.6178914904594421,"79":-2.989694118499756,"80":-0.9317100644111633,"81":1.055680513381958,"82":-2.364506244659424,"83":-0.6707800626754761,"84":-1.8346068859100342,"85":0.16887591779232025,"86":-1.2561265230178833,"87":0.42053449153900146,"88":0.5454985499382019,"89":-0.04206632822751999,"90":1.7532355785369873,"91":-1.2308720350265503,"92":1.856724500656128,"93":0.14690476655960083,"94":-0.09025932103395462,"95":-0.03015846200287342,"96":-2.6495344638824463,"97":-0.4632267355918884,"98":-0.5519090294837952,"99":-0.2799091935157776,"100":1.3728638887405396,"101":0.28029972314834595,"102":0.18233203887939453,"103":1.5089458227157593,"104":1.2140449285507202,"105":-1.466299057006836,"106":0.746128499507904,"107":0.02756338194012642,"108":0.7883643507957458,"109":-0.22546391189098358,"110":1.9303194284439087,"111":1.4054850339889526,"112":0.7536200881004333,"113":-0.12232255190610886,"114":0.4092370271682739,"115":0.4011991024017334,"116":-0.9814637899398804,"117":-1.3314094543457031,"118":-0.36482053995132446,"119":-1.273306131362915,"120":-0.4791128933429718,"121":-0.5773988962173462,"122":0.18204036355018616,"123":-1.9299209117889404,"124":-0.9007700681686401,"125":-0.4692806899547577,"126":0.6944719552993774,"127":-0.8375698924064636,"128":-3.9772698879241943,"129":-1.2989178895950317,"130":-1.678385615348816,"131":-2.4504849910736084,"132":1.9746588468551636,"133":-1.0362919569015503,"134":0.23967088758945465,"135":-0.12734684348106384,"136":0.06194610148668289,"137":-0.8926190137863159,"138":-1.331085443496704,"139":-2.519636392593384,"140":0.5604343414306641,"141":0.39553940296173096,"142":2.1017005443573,"143":2.147782564163208,"144":1.6267168521881104,"145":-1.6825090646743774,"146":1.716559648513794,"147":-0.858771026134491,"148":1.2408814430236816,"149":-0.9467447400093079,"150":2.2225704193115234,"151":0.7027718424797058,"152":0.5701555609703064,"153":-1.2581547498703003,"154":0.6211498975753784,"155":-0.034382835030555725,"156":-0.116446353495121,"157":0.8134777545928955,"158":-0.103804811835289,"159":1.776841640472412,"160":0.5718081593513489,"161":0.8080353736877441,"162":0.9159918427467346,"163":0.5926498770713806,"164":-0.1484631448984146,"165":1.5100131034851074,"166":-0.5255817174911499,"167":0.15695980191230774,"168":-0.04531272128224373,"169":0.11931204050779343,"170":-2.0683481693267822,"171":-1.8301053047180176,"172":0.02034163661301136,"173":0.05936950072646141,"174":-1.5107234716415405,"175":-0.04468568414449692,"176":1.0439308881759644,"177":0.779464602470398,"178":1.6732295751571655,"179":0.16257832944393158,"180":0.5164977312088013,"181":-0.18688905239105225,"182":0.8128954172134399,"183":-0.7835171818733215,"184":1.1211174726486206,"185":1.230501651763916,"186":0.021638832986354828,"187":0.4074241816997528,"188":-0.009075034409761429,"189":-0.1415938436985016,"190":-0.4316433072090149,"191":0.7238084673881531,"192":-0.11795995384454727,"193":0.21052353084087372,"194":-0.6152915358543396,"195":-0.20055189728736877,"196":0.45614883303642273,"197":0.5248652696609497,"198":0.86693274974823,"199":0.32681864500045776,"200":0.050016868859529495,"201":0.6457546949386597,"202":-0.23849065601825714,"203":-0.435916006565094,"204":0.32962876558303833,"205":-0.13133446872234344,"206":1.0329936742782593,"207":-0.49703919887542725,"208":1.5834755897521973,"209":-1.0163978338241577,"210":0.9509700536727905,"211":-0.8304006457328796,"212":-0.29915425181388855,"213":1.4532800912857056,"214":1.051890254020691,"215":1.918233871459961,"216":-0.6171472668647766,"217":-1.0547198057174683,"218":1.1932584047317505,"219":-1.8107068538665771,"220":-0.08520953357219696,"221":-0.5977539420127869,"222":0.30395379662513733,"223":-0.6811902523040771,"224":1.8714793920516968,"225":-0.6341336369514465,"226":-1.3157833814620972,"227":-0.2145371437072754,"228":-2.0278825759887695,"229":-2.1294424533843994,"230":0.3301001191139221,"231":0.09608396887779236,"232":1.5782285928726196,"233":0.3791202902793884,"234":0.44054940342903137,"235":-0.10969847440719604,"236":-1.539384126663208,"237":0.33120039105415344,"238":-0.20487123727798462,"239":-0.5181248188018799,"240":-0.09313002973794937,"241":-1.3412607908248901,"242":-0.09948346018791199,"243":-0.007080321665853262,"244":0.7324130535125732,"245":-1.2886278629302979,"246":2.1604855060577393,"247":-1.0085335969924927,"248":1.4222358465194702,"249":3.660870313644409,"250":-2.0443050861358643,"251":1.7952173948287964,"252":0.9731118679046631,"253":0.5394843220710754,"254":-2.1258676052093506,"255":0.2022876739501953,"256":-0.2551008462905884,"257":0.09475497901439667,"258":0.36066734790802,"259":-0.7523289322853088,"260":0.8404701352119446,"261":-0.3634779751300812,"262":0.4894736409187317,"263":-0.5910087823867798,"264":-0.2776326537132263,"265":-0.570781409740448,"266":-0.9322606325149536,"267":-0.03161206096410751,"268":0.5696297287940979,"269":-0.5027390718460083,"270":0.03281692415475845,"271":-0.7235530614852905,"272":0.5284777283668518,"273":0.24656423926353455,"274":-1.8295499086380005,"275":-0.9285098910331726,"276":-0.031424231827259064,"277":-0.4396332800388336,"278":0.6498398184776306,"279":-0.38278570771217346,"280":0.08858410269021988,"281":0.9247561097145081,"282":-0.16234128177165985,"283":0.7799867987632751,"284":0.8880269527435303,"285":-0.7474201917648315,"286":1.4054205417633057,"287":0.03971115127205849,"288":0.7909492254257202,"289":0.847868025302887,"290":-1.2335422039031982,"291":0.11341346800327301,"292":0.455614298582077,"293":-0.823657214641571,"294":1.0900850296020508,"295":-0.8185415267944336,"296":0.3153162896633148,"297":-0.9871294498443604,"298":-1.6177664995193481,"299":-1.0000429153442383,"300":-0.8771284222602844,"301":-0.3034520447254181,"302":0.7452189326286316,"303":0.2413392961025238,"304":1.4001195430755615,"305":-1.1496669054031372,"306":0.18935415148735046,"307":-0.03498312830924988,"308":0.07876873016357422,"309":0.38747769594192505,"310":0.12288470566272736,"311":0.09461381286382675,"312":0.5630686283111572,"313":0.2723187208175659,"314":0.09302496165037155,"315":-0.08273728936910629,"316":0.06093018874526024,"317":0.1669224351644516,"318":0.00830481294542551,"319":0.013373229652643204,"320":0.13458357751369476,"321":0.12328308075666428,"322":-0.04264722764492035,"323":-2.3393688201904297,"324":-1.671148419380188,"325":0.38371890783309937,"326":1.6650466918945312,"327":-1.5180470943450928,"328":-0.3818416893482208,"329":0.84663325548172,"330":1.0584821701049805,"331":1.7086994647979736,"332":1.5841647386550903,"333":-0.7105919718742371,"334":-0.11808700114488602,"335":1.0135416984558105,"336":-0.09159304201602936,"337":-0.9524810314178467,"338":1.0374846458435059,"339":-0.5218367576599121}},"forgetHidden":{"rows":20,"columns":20,"weights":{"0":1.9186619520187378,"1":3.2437243461608887,"2":-1.7996653318405151,"3":-0.4696953296661377,"4":-3.254974603652954,"5":0.1409894824028015,"6":-1.2112241983413696,"7":1.8005012273788452,"8":0.8357744812965393,"9":-1.6060051918029785,"10":0.4086131751537323,"11":1.8281201124191284,"12":1.4003041982650757,"13":-1.6022546291351318,"14":-1.4839775562286377,"15":1.4742341041564941,"16":1.665168285369873,"17":0.6300538778305054,"18":4.441585540771484,"19":-0.7004912495613098,"20":-1.5035889148712158,"21":-0.756197452545166,"22":0.2390732318162918,"23":-0.6507816910743713,"24":0.35831767320632935,"25":-1.38057279586792,"26":2.0287692546844482,"27":0.7115058302879333,"28":-1.5477454662322998,"29":-0.5270610451698303,"30":-0.8585340976715088,"31":-1.1440374851226807,"32":0.38127920031547546,"33":-0.9381091594696045,"34":0.3458172678947449,"35":0.5651565790176392,"36":-1.2514986991882324,"37":0.569708526134491,"38":0.6806134581565857,"39":0.17432500422000885,"40":-0.925072431564331,"41":1.6190963983535767,"42":0.11446383595466614,"43":0.45652520656585693,"44":-4.374727725982666,"45":1.3180495500564575,"46":-0.44218191504478455,"47":-1.3179852962493896,"48":0.49174779653549194,"49":-0.7158393263816833,"50":-2.8379416465759277,"51":0.19389352202415466,"52":2.2230613231658936,"53":-2.791856050491333,"54":-0.13661766052246094,"55":-0.5477153062820435,"56":-0.3353482484817505,"57":-0.03632742911577225,"58":0.9521373510360718,"59":0.4270886778831482,"60":-0.521623969078064,"61":-0.6446157693862915,"62":-0.12724241614341736,"63":-1.350849986076355,"64":0.4737134277820587,"65":-1.0634735822677612,"66":0.342151403427124,"67":0.7533666491508484,"68":-1.10608971118927,"69":1.2247509956359863,"70":0.23989339172840118,"71":-0.8483079075813293,"72":0.13084685802459717,"73":0.27521026134490967,"74":-0.2874624729156494,"75":1.079164981842041,"76":-0.15876205265522003,"77":0.5194874405860901,"78":3.185474157333374,"79":-0.3963046967983246,"80":-0.0506022684276104,"81":-0.12568242847919464,"82":0.21844090521335602,"83":-1.1225477457046509,"84":0.3679758906364441,"85":-0.816085934638977,"86":-0.3529321849346161,"87":0.6407495737075806,"88":-0.12756134569644928,"89":0.022489331662654877,"90":0.28035596013069153,"91":-0.019829459488391876,"92":1.2549469470977783,"93":-0.680752158164978,"94":0.11351698637008667,"95":1.2261804342269897,"96":0.7873749136924744,"97":1.209879994392395,"98":-0.31648489832878113,"99":-1.0391737222671509,"100":-1.3734933137893677,"101":0.7134144306182861,"102":0.18472786247730255,"103":-0.6485335230827332,"104":0.2511836290359497,"105":-1.8867241144180298,"106":1.5098131895065308,"107":-0.6791025996208191,"108":-1.3780651092529297,"109":0.7847315073013306,"110":-0.8638807535171509,"111":-2.725743532180786,"112":-3.786104917526245,"113":-1.2155171632766724,"114":2.1496739387512207,"115":0.2576879858970642,"116":-1.1228312253952026,"117":-0.32831984758377075,"118":-0.923144519329071,"119":0.01790156587958336,"120":-0.501755952835083,"121":0.37669870257377625,"122":1.5394089221954346,"123":2.2394251823425293,"124":-0.2571192979812622,"125":0.10727821290493011,"126":0.8827499747276306,"127":-0.5129675269126892,"128":1.9089462757110596,"129":0.19112680852413177,"130":-0.8292883038520813,"131":-0.6976783871650696,"132":-0.1382051259279251,"133":1.3039482831954956,"134":0.6807648539543152,"135":-2.5123751163482666,"136":-0.8299745321273804,"137":-1.4899241924285889,"138":-2.5415143966674805,"139":2.537126302719116,"140":-0.12231413275003433,"141":0.22101418673992157,"142":-2.20931077003479,"143":0.3116990625858307,"144":-1.156820297241211,"145":-0.5209392309188843,"146":-0.7766923904418945,"147":3.3570520877838135,"148":-0.05262814462184906,"149":-0.9094091057777405,"150":-0.8517293334007263,"151":-0.9125972390174866,"152":1.07728910446167,"153":-2.191368818283081,"154":0.9056220054626465,"155":-0.7679948210716248,"156":0.09093156456947327,"157":-1.151397466659546,"158":-0.5134216547012329,"159":2.1982581615448,"160":-1.7405012845993042,"161":-0.21409079432487488,"162":0.6393266320228577,"163":1.9651002883911133,"164":-1.4219880104064941,"165":0.31993502378463745,"166":3.0661513805389404,"167":-1.2320269346237183,"168":1.606157898902893,"169":-1.5268096923828125,"170":-1.5248829126358032,"171":-0.7495596408843994,"172":1.2108192443847656,"173":0.7700037360191345,"174":-1.9869221448898315,"175":-2.4137520790100098,"176":-0.7865380048751831,"177":-3.5068225860595703,"178":1.0307642221450806,"179":0.5667573809623718,"180":0.49235063791275024,"181":-0.7298119068145752,"182":2.042156934738159,"183":-1.3872259855270386,"184":1.2333093881607056,"185":-2.6457438468933105,"186":2.1193127632141113,"187":0.9657357931137085,"188":-0.002691351342946291,"189":2.7955687046051025,"190":1.3825987577438354,"191":-0.28793829679489136,"192":0.42234182357788086,"193":2.0043396949768066,"194":-0.6289647221565247,"195":1.0060683488845825,"196":0.3985084891319275,"197":-0.016266735270619392,"198":1.315111756324768,"199":-2.9748919010162354,"200":2.408252000808716,"201":0.9864438772201538,"202":2.0875003337860107,"203":1.2977924346923828,"204":-1.6546683311462402,"205":1.2910025119781494,"206":3.202728748321533,"207":-0.3608841001987457,"208":2.0175509452819824,"209":-0.02783987671136856,"210":0.23405972123146057,"211":1.9041671752929688,"212":-2.3371338844299316,"213":1.310649037361145,"214":-1.0555120706558228,"215":-1.2286617755889893,"216":1.4470940828323364,"217":-1.0538986921310425,"218":0.06694187223911285,"219":0.13395968079566956,"220":1.589518666267395,"221":-0.02747335284948349,"222":0.3052130937576294,"223":0.7160868644714355,"224":-1.275637149810791,"225":0.7639316320419312,"226":-0.4115014672279358,"227":-0.4086158573627472,"228":0.939917802810669,"229":-0.3303515911102295,"230":-0.8087081909179688,"231":2.253270149230957,"232":0.9576213359832764,"233":0.6619452238082886,"234":-0.4406120479106903,"235":-0.28424590826034546,"236":1.421568751335144,"237":-0.729191780090332,"238":0.3365914523601532,"239":1.2125701904296875,"240":2.893162488937378,"241":1.3086804151535034,"242":-0.19646434485912323,"243":0.8594174981117249,"244":1.6985687017440796,"245":1.0765631198883057,"246":-0.7151103019714355,"247":0.26463761925697327,"248":0.9648743271827698,"249":-0.6511337161064148,"250":0.665318489074707,"251":1.0621126890182495,"252":0.532253086566925,"253":1.2781667709350586,"254":-1.0282739400863647,"255":-0.5402944087982178,"256":1.7454348802566528,"257":0.031025350093841553,"258":-1.7424795627593994,"259":0.6373950242996216,"260":2.1792731285095215,"261":0.3478289544582367,"262":-1.226681113243103,"263":0.0633254423737526,"264":-0.9466461539268494,"265":2.997697114944458,"266":-2.335190773010254,"267":1.8274868726730347,"268":1.0776211023330688,"269":0.40813177824020386,"270":-1.0365593433380127,"271":1.4435133934020996,"272":-0.849039614200592,"273":-0.6935816407203674,"274":-1.4427958726882935,"275":-0.5241297483444214,"276":2.8034958839416504,"277":-0.3212741017341614,"278":-1.1458518505096436,"279":1.5413951873779297,"280":0.7345257997512817,"281":-2.5513181686401367,"282":3.029148578643799,"283":-0.9980468153953552,"284":0.26088231801986694,"285":2.63033390045166,"286":3.998183250427246,"287":1.6949493885040283,"288":-0.4112958610057831,"289":-1.8777886629104614,"290":0.9522450566291809,"291":2.8246710300445557,"292":-0.24757088720798492,"293":-3.13185453414917,"294":-0.6901410818099976,"295":1.5094692707061768,"296":1.718214511871338,"297":0.9993693828582764,"298":-0.5883820652961731,"299":-1.950002670288086,"300":0.07910974323749542,"301":-0.8435999751091003,"302":0.05015632510185242,"303":-1.082081913948059,"304":1.4360694885253906,"305":-1.3152395486831665,"306":0.851883053779602,"307":0.7366039752960205,"308":-1.1238715648651123,"309":1.453718900680542,"310":0.7594419717788696,"311":-0.9836605191230774,"312":-0.565845251083374,"313":0.5377010107040405,"314":0.18781808018684387,"315":1.1520395278930664,"316":0.14269129931926727,"317":1.3625479936599731,"318":2.077725648880005,"319":-0.8474154472351074,"320":1.356605052947998,"321":0.6888739466667175,"322":0.11399523168802261,"323":0.7902176976203918,"324":-0.8676180839538574,"325":0.4215445816516876,"326":-1.3383803367614746,"327":-0.27916041016578674,"328":0.06458911299705505,"329":-1.5603690147399902,"330":-0.12083819508552551,"331":1.1744046211242676,"332":0.8087635636329651,"333":-0.4816359579563141,"334":0.1733415126800537,"335":-0.5967734456062317,"336":1.4671372175216675,"337":-1.1113669872283936,"338":0.3496745824813843,"339":0.40854939818382263,"340":0.07267358899116516,"341":-1.1612962484359741,"342":0.30702003836631775,"343":-1.051451325416565,"344":1.5199750661849976,"345":-0.7378716468811035,"346":0.24311579763889313,"347":0.4276152551174164,"348":-0.5375621914863586,"349":0.6807511448860168,"350":0.36806896328926086,"351":-0.1820913553237915,"352":-0.5732279419898987,"353":0.081991046667099,"354":-0.23519575595855713,"355":1.1880950927734375,"356":-0.2059236466884613,"357":1.4040801525115967,"358":0.5429851412773132,"359":-0.8597394824028015,"360":-2.282668113708496,"361":-1.1843328475952148,"362":2.3556606769561768,"363":-0.7059899568557739,"364":0.3920521140098572,"365":-1.6841559410095215,"366":1.2125592231750488,"367":1.2803995609283447,"368":-2.829578399658203,"369":-0.2520371973514557,"370":1.6574875116348267,"371":-0.7711694240570068,"372":-0.3947058916091919,"373":1.9655975103378296,"374":0.9260162711143494,"375":0.4522109627723694,"376":0.6409057378768921,"377":1.2044060230255127,"378":0.661130964756012,"379":-1.8229469060897827,"380":-2.762665033340454,"381":-1.6898016929626465,"382":-0.6357983946800232,"383":0.28006741404533386,"384":1.1846576929092407,"385":0.07183771580457687,"386":-2.586761713027954,"387":-0.980276882648468,"388":0.7666178941726685,"389":0.6915493011474609,"390":0.8318454623222351,"391":-1.2827563285827637,"392":-0.27134230732917786,"393":2.2612695693969727,"394":0.36235925555229187,"395":0.06157277897000313,"396":-1.3589564561843872,"397":-0.7284579277038574,"398":2.2944631576538086,"399":-0.9641006588935852}},"forgetBias":{"rows":20,"columns":1,"weights":{"0":0,"1":0,"2":0,"3":0,"4":0,"5":0,"6":0,"7":0,"8":0,"9":0,"10":0,"11":0,"12":0,"13":0,"14":0,"15":0,"16":0,"17":0,"18":0,"19":0}},"outputMatrix":{"rows":20,"columns":17,"weights":{"0":0.2543271481990814,"1":0.5432751774787903,"2":-0.20718416571617126,"3":0.24129804968833923,"4":0.45791053771972656,"5":-0.6090631484985352,"6":-0.07790625840425491,"7":-0.4767630398273468,"8":-0.03992455452680588,"9":-0.13693265616893768,"10":-0.08002372831106186,"11":0.12109911441802979,"12":0.07976929098367691,"13":-0.49023711681365967,"14":-0.004652249161154032,"15":-0.8318048119544983,"16":0.7407917976379395,"17":-1.3937296867370605,"18":0.5570685267448425,"19":-0.4479861855506897,"20":-3.5984959602355957,"21":0.579871416091919,"22":0.2916099429130554,"23":-0.872802197933197,"24":-0.2397744357585907,"25":1.742845058441162,"26":0.08882144838571548,"27":-0.20085322856903076,"28":-0.29602256417274475,"29":-1.6955863237380981,"30":0.8949755430221558,"31":-0.837219774723053,"32":0.04094907268881798,"33":-0.5341015458106995,"34":-0.3905991017818451,"35":-1.8238239288330078,"36":0.29066330194473267,"37":1.0861177444458008,"38":-0.1251290738582611,"39":1.6192750930786133,"40":0.6370262503623962,"41":1.3720701932907104,"42":-0.05107049271464348,"43":1.091833472251892,"44":1.0171360969543457,"45":0.6289746761322021,"46":-0.5472202897071838,"47":0.7332288026809692,"48":0.5488532781600952,"49":1.8915611505508423,"50":-2.480422258377075,"51":-0.0024589342065155506,"52":0.042318135499954224,"53":0.31233757734298706,"54":-0.005634250584989786,"55":-0.980191707611084,"56":0.7780395150184631,"57":-2.0387895107269287,"58":0.8896597623825073,"59":-0.9161277413368225,"60":-1.8983404636383057,"61":-1.2315038442611694,"62":-1.582152009010315,"63":-1.4404535293579102,"64":1.8485780954360962,"65":-2.1536593437194824,"66":0.01004881877452135,"67":-0.8131452202796936,"68":0.01045181229710579,"69":-0.07593409717082977,"70":0.9268784523010254,"71":0.006616619881242514,"72":-0.01825530268251896,"73":2.2733840942382812,"74":-1.4108576774597168,"75":1.1312040090560913,"76":-0.07736549526453018,"77":-0.390791118144989,"78":-0.9579398036003113,"79":-1.250630497932434,"80":-1.9503098726272583,"81":1.3136749267578125,"82":-1.7046061754226685,"83":1.020906686782837,"84":-1.8256146907806396,"85":-1.3599451780319214,"86":0.8428367376327515,"87":-0.7879096269607544,"88":-0.8993154764175415,"89":-0.3736129403114319,"90":-0.3452909588813782,"91":0.11482154577970505,"92":0.24920471012592316,"93":-1.0242620706558228,"94":-0.2552301585674286,"95":-0.32281428575515747,"96":-0.47859978675842285,"97":-1.4014275074005127,"98":0.30097559094429016,"99":-0.18726839125156403,"100":0.29861176013946533,"101":-0.20217756927013397,"102":0.012000806629657745,"103":-1.8967869281768799,"104":0.2447090595960617,"105":-2.6862404346466064,"106":-0.8903307914733887,"107":2.1636126041412354,"108":-1.1437443494796753,"109":0.9012449979782104,"110":1.0303852558135986,"111":1.8125205039978027,"112":-1.6102057695388794,"113":-0.2814456820487976,"114":1.3692560195922852,"115":-0.6401492357254028,"116":-0.47660067677497864,"117":0.42801910638809204,"118":-0.965339183807373,"119":-1.210942268371582,"120":-1.0757373571395874,"121":-1.12152099609375,"122":-4.566016674041748,"123":-0.395853728055954,"124":1.1645541191101074,"125":-1.7050360441207886,"126":0.7936962246894836,"127":2.0229451656341553,"128":0.28917714953422546,"129":0.35516318678855896,"130":-0.19190895557403564,"131":-2.0698812007904053,"132":-0.013678713701665401,"133":-0.70681232213974,"134":-0.4596191346645355,"135":-0.5342763066291809,"136":-1.6417362689971924,"137":0.0953998789191246,"138":-0.6290990710258484,"139":-1.0362824201583862,"140":-0.7051132321357727,"141":0.12235981971025467,"142":-0.5087457895278931,"143":-0.8238409757614136,"144":-0.5764101147651672,"145":-1.5250540971755981,"146":0.16029959917068481,"147":-0.4072279930114746,"148":-0.9947253465652466,"149":0.533201277256012,"150":-0.1494511514902115,"151":-0.49731096625328064,"152":0.48077693581581116,"153":-0.24519707262516022,"154":2.047703266143799,"155":-0.29556936025619507,"156":-1.5842421054840088,"157":0.095847487449646,"158":-1.2796547412872314,"159":-1.1457213163375854,"160":0.12102371454238892,"161":0.0880090519785881,"162":1.5635671615600586,"163":-2.2058141231536865,"164":0.9505630135536194,"165":-0.5031827688217163,"166":-0.6414543390274048,"167":-0.4970579147338867,"168":-2.25230073928833,"169":0.7835395932197571,"170":0.2501011788845062,"171":-0.7642824053764343,"172":0.514883816242218,"173":-0.2462378442287445,"174":-2.097506046295166,"175":1.3805211782455444,"176":-2.354238986968994,"177":1.0698219537734985,"178":0.10100230574607849,"179":-1.2334345579147339,"180":-1.878431797027588,"181":-1.5982505083084106,"182":-1.5242972373962402,"183":2.3268215656280518,"184":-1.4278002977371216,"185":0.5247653126716614,"186":-1.292615532875061,"187":0.03890334442257881,"188":0.28508248925209045,"189":-0.6873710751533508,"190":-0.23883110284805298,"191":1.823702096939087,"192":-1.094443678855896,"193":2.370462417602539,"194":-0.7874672412872314,"195":0.2927028238773346,"196":1.1966776847839355,"197":1.6210945844650269,"198":2.011972665786743,"199":1.0329545736312866,"200":-1.7140253782272339,"201":2.4499402046203613,"202":-0.5367645025253296,"203":0.2493436336517334,"204":0.5316053032875061,"205":-1.0483235120773315,"206":-0.9660543203353882,"207":-1.716680884361267,"208":-0.2894102931022644,"209":0.08517546206712723,"210":0.28772255778312683,"211":0.42310115694999695,"212":-0.13703884184360504,"213":0.3096158504486084,"214":0.029895277693867683,"215":-0.2751910090446472,"216":1.724754810333252,"217":-0.2595010995864868,"218":0.6563649773597717,"219":-0.644922137260437,"220":0.4912906587123871,"221":0.23961521685123444,"222":-0.655052661895752,"223":-0.4245167672634125,"224":0.22127991914749146,"225":-0.5323408246040344,"226":1.189698338508606,"227":-0.428790420293808,"228":0.9906517863273621,"229":-0.6294870376586914,"230":0.08816951513290405,"231":-0.9597987532615662,"232":-1.2950154542922974,"233":0.3127625584602356,"234":0.30218905210494995,"235":-0.6005618572235107,"236":0.5705459713935852,"237":-1.0812128782272339,"238":-0.1222134605050087,"239":1.0109463930130005,"240":0.9720812439918518,"241":1.9028822183609009,"242":-0.26480987668037415,"243":-0.8009642362594604,"244":-1.2354764938354492,"245":-2.413008451461792,"246":-0.9142277240753174,"247":-0.12999436259269714,"248":-0.8862537145614624,"249":1.7812473773956299,"250":-1.079156756401062,"251":2.2846810817718506,"252":-2.040855884552002,"253":-0.36109477281570435,"254":0.06802248954772949,"255":-0.14123716950416565,"256":0.20146550238132477,"257":-0.31090039014816284,"258":-1.3526573181152344,"259":0.07667934149503708,"260":1.5041418075561523,"261":-0.19656221568584442,"262":1.1022706031799316,"263":-1.292595386505127,"264":-0.11645354330539703,"265":-0.17131739854812622,"266":-1.766045331954956,"267":0.2607278525829315,"268":0.07766447216272354,"269":-0.5515491366386414,"270":-0.22147482633590698,"271":-0.8989986777305603,"272":-0.49471384286880493,"273":0.516016960144043,"274":0.36997294425964355,"275":-0.14207324385643005,"276":0.690983772277832,"277":-0.46349772810935974,"278":0.3203480839729309,"279":-0.18812546133995056,"280":0.5401059985160828,"281":0.01853206381201744,"282":0.06119043380022049,"283":0.21748019754886627,"284":-0.06061122938990593,"285":0.0005832500173710287,"286":-0.08604881167411804,"287":-0.09411420673131943,"288":0.38958340883255005,"289":-1.1923130750656128,"290":-1.0194721221923828,"291":1.563610315322876,"292":-0.6218053102493286,"293":-1.3965791463851929,"294":1.5573652982711792,"295":-2.9771385192871094,"296":-0.3989613950252533,"297":1.3593140840530396,"298":-1.926035761833191,"299":-1.9262406826019287,"300":-1.3251307010650635,"301":-1.447340488433838,"302":2.585442543029785,"303":-1.8638495206832886,"304":1.9073381423950195,"305":-1.7773452997207642,"306":-0.7312464118003845,"307":-0.8174257278442383,"308":0.10414350777864456,"309":-0.5923579335212708,"310":-0.08516865223646164,"311":1.2091950178146362,"312":-0.6077030897140503,"313":0.8498599529266357,"314":0.7195475101470947,"315":0.9168787002563477,"316":-0.41730695962905884,"317":-0.6421821713447571,"318":-0.8408005833625793,"319":-0.6332386136054993,"320":-0.281827837228775,"321":0.08549869805574417,"322":-0.6972382068634033,"323":-1.192223072052002,"324":-2.0677969455718994,"325":-0.7582899928092957,"326":-1.7572596073150635,"327":-0.5532847046852112,"328":0.550738513469696,"329":-3.7892343997955322,"330":-0.38659408688545227,"331":-0.6025512218475342,"332":-2.0367023944854736,"333":-0.01565932296216488,"334":-0.17768847942352295,"335":-2.9494714736938477,"336":1.483068823814392,"337":-0.26054683327674866,"338":0.25951170921325684,"339":-0.9528683423995972}},"outputHidden":{"rows":20,"columns":20,"weights":{"0":1.5680382251739502,"1":3.9176487922668457,"2":-0.7736090421676636,"3":1.2112540006637573,"4":-1.7089626789093018,"5":2.354346513748169,"6":-0.7321960926055908,"7":0.01485135592520237,"8":0.6697172522544861,"9":-2.421386480331421,"10":-0.5258340835571289,"11":0.38316866755485535,"12":1.2392207384109497,"13":-1.0919336080551147,"14":-0.8402763605117798,"15":-1.1865742206573486,"16":1.2742903232574463,"17":-1.9290423393249512,"18":-2.66652250289917,"19":1.2993946075439453,"20":1.8476654291152954,"21":-0.2874709367752075,"22":-0.550079882144928,"23":-2.4496655464172363,"24":1.9115769863128662,"25":-1.248530387878418,"26":-0.9066890478134155,"27":1.544320821762085,"28":-1.1131254434585571,"29":-0.08999495953321457,"30":0.6915597319602966,"31":0.39520901441574097,"32":1.2428350448608398,"33":0.0820135623216629,"34":-0.003669943893328309,"35":1.5200843811035156,"36":2.427924394607544,"37":0.33128657937049866,"38":-0.35098201036453247,"39":-0.6699041128158569,"40":0.3120703399181366,"41":1.7890143394470215,"42":-3.2445085048675537,"43":1.6413531303405762,"44":-1.1181811094284058,"45":-1.4633269309997559,"46":0.1271793097257614,"47":2.280353307723999,"48":0.23296880722045898,"49":-1.0033049583435059,"50":-1.8357034921646118,"51":3.581134557723999,"52":-1.5499045848846436,"53":0.4783797860145569,"54":-2.317044258117676,"55":-1.788938045501709,"56":0.8493945598602295,"57":-1.2959811687469482,"58":-1.4269297122955322,"59":0.5950988531112671,"60":-0.041734687983989716,"61":-2.038670301437378,"62":0.28641626238822937,"63":-1.3716858625411987,"64":1.7489030361175537,"65":-0.32389140129089355,"66":0.9288298487663269,"67":0.7804195284843445,"68":-0.20744989812374115,"69":1.3359272480010986,"70":-0.40208712220191956,"71":0.9929516315460205,"72":0.2980065941810608,"73":0.12994623184204102,"74":0.15143270790576935,"75":1.1740154027938843,"76":-0.315132200717926,"77":0.9268200397491455,"78":5.015049934387207,"79":-1.2159230709075928,"80":0.5396449565887451,"81":0.9201940298080444,"82":-2.7707180976867676,"83":0.5857691168785095,"84":-1.1240558624267578,"85":0.39060020446777344,"86":-1.8924453258514404,"87":2.645197868347168,"88":-0.7810264825820923,"89":-2.1881401538848877,"90":0.07263106107711792,"91":0.27518078684806824,"92":1.1934750080108643,"93":-1.9165031909942627,"94":-0.42674562335014343,"95":-0.4302428960800171,"96":0.3004183769226074,"97":-0.14722947776317596,"98":0.04465461149811745,"99":-0.44192230701446533,"100":-0.20987112820148468,"101":-2.045419931411743,"102":0.4895005226135254,"103":-1.6567606925964355,"104":2.0745902061462402,"105":-0.2717517614364624,"106":-5.050378799438477,"107":-1.8881409168243408,"108":0.19553494453430176,"109":2.8422696590423584,"110":0.8070931434631348,"111":2.820050001144409,"112":3.069042921066284,"113":-0.4849310517311096,"114":1.3878010511398315,"115":1.3215084075927734,"116":0.5933929085731506,"117":2.54013729095459,"118":0.3373950123786926,"119":-0.605262041091919,"120":0.10664885491132736,"121":-0.714183509349823,"122":-1.2932268381118774,"123":-0.9951498508453369,"124":0.6873302459716797,"125":0.22356978058815002,"126":-0.46486765146255493,"127":-0.3919103443622589,"128":0.5233015418052673,"129":-3.1525721549987793,"130":-0.18224003911018372,"131":1.169810175895691,"132":0.5575231313705444,"133":0.07896197587251663,"134":-0.525174081325531,"135":0.8351427912712097,"136":0.6113137602806091,"137":1.1658556461334229,"138":-2.660430431365967,"139":-0.17511355876922607,"140":0.29289010167121887,"141":-0.14769966900348663,"142":-2.3731420040130615,"143":-1.482059359550476,"144":2.1332976818084717,"145":-0.819916844367981,"146":-1.5647531747817993,"147":0.9919869303703308,"148":-1.8133608102798462,"149":0.8295227885246277,"150":-0.8398052453994751,"151":0.47936663031578064,"152":-0.46470412611961365,"153":0.532868504524231,"154":1.7298027276992798,"155":1.0566167831420898,"156":0.7191817760467529,"157":-0.6680812835693359,"158":-2.845355987548828,"159":-0.29822152853012085,"160":-1.0307064056396484,"161":-0.5117036700248718,"162":-2.0301709175109863,"163":-1.6057865619659424,"164":2.1890058517456055,"165":-0.39880409836769104,"166":-1.5526103973388672,"167":1.0718673467636108,"168":-1.2515910863876343,"169":1.3306814432144165,"170":0.24716679751873016,"171":1.558956503868103,"172":1.813860297203064,"173":-1.1839070320129395,"174":-0.3901987671852112,"175":1.5098726749420166,"176":-0.48418569564819336,"177":3.006800651550293,"178":0.23829127848148346,"179":0.12139303237199783,"180":0.752240777015686,"181":-2.1183342933654785,"182":0.03941434249281883,"183":-1.4364421367645264,"184":1.0098941326141357,"185":-0.9077867865562439,"186":-0.37753504514694214,"187":1.0062273740768433,"188":-0.21119019389152527,"189":0.7304379940032959,"190":1.1786600351333618,"191":1.9880952835083008,"192":1.4797730445861816,"193":1.1556987762451172,"194":-0.5796561241149902,"195":1.2704728841781616,"196":0.7008472681045532,"197":0.5652225017547607,"198":2.24247670173645,"199":-1.186752438545227,"200":-0.4071163833141327,"201":-2.0379209518432617,"202":0.09496668726205826,"203":-1.5077571868896484,"204":3.0539307594299316,"205":-0.28263211250305176,"206":-0.5379425883293152,"207":0.11380133777856827,"208":-0.022057021036744118,"209":-0.4117945730686188,"210":0.6058570742607117,"211":-0.09505560994148254,"212":0.8800628781318665,"213":-0.6016095876693726,"214":0.28645339608192444,"215":1.5825347900390625,"216":-0.3386758863925934,"217":1.4178467988967896,"218":-3.997340202331543,"219":-0.6038376092910767,"220":1.6100761890411377,"221":-0.6241387128829956,"222":-0.6553938984870911,"223":-0.1761912703514099,"224":0.29111379384994507,"225":-1.1730835437774658,"226":-0.08351187407970428,"227":-0.6945173740386963,"228":-0.5228455066680908,"229":-0.4459739625453949,"230":-0.49684134125709534,"231":0.9997930526733398,"232":-0.6121047139167786,"233":0.920658528804779,"234":0.11900418251752853,"235":0.1158919408917427,"236":1.3261711597442627,"237":0.4459609389305115,"238":-0.09700851887464523,"239":-0.20233634114265442,"240":1.8678745031356812,"241":-1.3510938882827759,"242":2.6661813259124756,"243":-0.127940371632576,"244":0.27612268924713135,"245":-0.773184597492218,"246":-0.5371829867362976,"247":0.4299149811267853,"248":0.28978022933006287,"249":1.9132931232452393,"250":2.0185229778289795,"251":2.1621692180633545,"252":1.2291629314422607,"253":2.142611265182495,"254":-2.3395564556121826,"255":0.26506343483924866,"256":1.8412795066833496,"257":0.7160168290138245,"258":-0.555182933807373,"259":-0.8140841126441956,"260":0.07050099968910217,"261":-4.698672771453857,"262":2.1174604892730713,"263":-1.8078845739364624,"264":2.5708961486816406,"265":-1.0251659154891968,"266":1.4531667232513428,"267":2.55135440826416,"268":-2.0626444816589355,"269":-0.3252398371696472,"270":0.7762249708175659,"271":1.0496251583099365,"272":-0.7975772619247437,"273":0.20437560975551605,"274":-0.6704892516136169,"275":2.501967430114746,"276":0.40642839670181274,"277":2.773733377456665,"278":0.2897299826145172,"279":1.5292673110961914,"280":0.7330240607261658,"281":-1.5263376235961914,"282":-0.6740482449531555,"283":-2.4246714115142822,"284":1.3142123222351074,"285":-0.9504351019859314,"286":1.59268057346344,"287":1.7849242687225342,"288":-1.9506632089614868,"289":0.8676604628562927,"290":0.26392924785614014,"291":0.4298609793186188,"292":-1.5155937671661377,"293":-2.092007637023926,"294":-2.390935182571411,"295":2.0576047897338867,"296":1.1792770624160767,"297":1.846986174583435,"298":0.8552073240280151,"299":-1.4407336711883545,"300":0.4537195861339569,"301":-2.7621257305145264,"302":0.9845300316810608,"303":-1.8201512098312378,"304":2.628216028213501,"305":-0.03530476987361908,"306":0.2945178747177124,"307":0.9832233786582947,"308":-1.010063886642456,"309":0.39108920097351074,"310":0.3565140664577484,"311":1.8780689239501953,"312":0.7326940298080444,"313":0.0525798425078392,"314":0.8547844290733337,"315":1.7894519567489624,"316":1.8204718828201294,"317":2.0339136123657227,"318":2.5639004707336426,"319":-1.2487661838531494,"320":0.8543142676353455,"321":3.5707004070281982,"322":-0.8578410744667053,"323":1.2022416591644287,"324":-0.7723020911216736,"325":1.8433960676193237,"326":-3.086857795715332,"327":-0.024646544829010963,"328":0.5155826807022095,"329":-1.321152925491333,"330":0.1053062155842781,"331":0.5062949657440186,"332":1.0394905805587769,"333":-0.45090457797050476,"334":-0.3478895127773285,"335":-0.6782181262969971,"336":0.8549007177352905,"337":-0.6916621327400208,"338":-1.9862152338027954,"339":0.591796875,"340":1.628167986869812,"341":-1.0995008945465088,"342":1.3207775354385376,"343":-0.5182726979255676,"344":-0.07904047518968582,"345":0.9470931887626648,"346":-1.5645643472671509,"347":0.558550238609314,"348":-0.09570522606372833,"349":0.2670447826385498,"350":-0.29561471939086914,"351":2.2608091831207275,"352":2.523186206817627,"353":-1.502606749534607,"354":0.6684271693229675,"355":0.3722846508026123,"356":1.4842063188552856,"357":0.39214861392974854,"358":0.4114427864551544,"359":0.9295371770858765,"360":-1.7112128734588623,"361":-1.6979953050613403,"362":1.4588392972946167,"363":-0.7467368245124817,"364":0.9411972165107727,"365":-1.6613856554031372,"366":2.1259398460388184,"367":0.2737196683883667,"368":-1.7252434492111206,"369":-0.20772665739059448,"370":1.4023326635360718,"371":-1.9709566831588745,"372":-1.9775524139404297,"373":1.3598822355270386,"374":0.6966954469680786,"375":0.7779057621955872,"376":-0.6105102896690369,"377":0.9948234558105469,"378":1.209031581878662,"379":-1.6446881294250488,"380":0.9032778143882751,"381":2.244819402694702,"382":0.25945404171943665,"383":-1.2106812000274658,"384":1.3058816194534302,"385":-0.5676429867744446,"386":-0.9750227332115173,"387":-1.1929123401641846,"388":1.2881437540054321,"389":1.337157964706421,"390":-1.085350513458252,"391":1.2158098220825195,"392":1.807279348373413,"393":2.4416494369506836,"394":0.5714158415794373,"395":0.8495194911956787,"396":0.5795783400535583,"397":0.20490603148937225,"398":-0.28758156299591064,"399":-0.7476226687431335}},"outputBias":{"rows":20,"columns":1,"weights":{"0":0.9579349756240845,"1":0.0996273085474968,"2":3.0890042781829834,"3":-1.9119501113891602,"4":-0.6454892754554749,"5":-0.6110520958900452,"6":3.0606131553649902,"7":1.6687098741531372,"8":-1.1285861730575562,"9":1.1352894306182861,"10":-1.7000845670700073,"11":-0.5188066363334656,"12":-1.20090913772583,"13":1.4934502840042114,"14":-1.4523930549621582,"15":-3.2101387977600098,"16":-2.2897167205810547,"17":-1.6306511163711548,"18":2.6381378173828125,"19":-2.443171501159668}},"cellActivationMatrix":{"rows":20,"columns":17,"weights":{"0":-1.6032602787017822,"1":1.8979308605194092,"2":-0.5623621344566345,"3":-0.7016931772232056,"4":0.863389790058136,"5":-0.4611963629722595,"6":0.4650905132293701,"7":-0.6627129912376404,"8":0.05415302515029907,"9":1.558998942375183,"10":-0.10862918943166733,"11":0.39598995447158813,"12":1.1743706464767456,"13":-1.1227818727493286,"14":0.1528022438287735,"15":-1.3908308744430542,"16":1.4530789852142334,"17":1.740281581878662,"18":0.05392211303114891,"19":-0.4172056019306183,"20":-0.3406175673007965,"21":0.15430589020252228,"22":-0.4062846004962921,"23":0.6036325097084045,"24":0.013987851329147816,"25":-0.11488678306341171,"26":0.2439836710691452,"27":0.20965476334095,"28":-0.12745827436447144,"29":0.32930493354797363,"30":-0.11083220690488815,"31":0.08305603265762329,"32":-0.4253457188606262,"33":0.38588130474090576,"34":-0.05521901696920395,"35":0.3727087080478668,"36":-1.0493358373641968,"37":1.034065842628479,"38":0.2109367549419403,"39":-0.6737145781517029,"40":-0.33584386110305786,"41":-0.7722888588905334,"42":-1.2444431781768799,"43":-1.2249515056610107,"44":0.40245363116264343,"45":0.7063109278678894,"46":-0.7072980403900146,"47":-0.42049065232276917,"48":1.2377499341964722,"49":0.2606729567050934,"50":0.42405423521995544,"51":-0.2237052321434021,"52":0.4601890444755554,"53":-0.11720895767211914,"54":-0.48883792757987976,"55":0.9143723845481873,"56":-0.8253601789474487,"57":0.7937024831771851,"58":-0.4406203031539917,"59":0.7428445816040039,"60":0.6826307773590088,"61":0.8559539318084717,"62":0.6328549385070801,"63":0.8283811807632446,"64":-1.1527564525604248,"65":0.8782957196235657,"66":-0.4285407066345215,"67":0.9439805746078491,"68":0.9414657354354858,"69":-0.9678115248680115,"70":-0.5367549657821655,"71":1.1244871616363525,"72":-0.9473733901977539,"73":1.1332826614379883,"74":-0.40848508477211,"75":0.9249997735023499,"76":-1.1866146326065063,"77":-0.30822718143463135,"78":-0.13831491768360138,"79":-0.5831285119056702,"80":-0.5017740726470947,"81":1.6892060041427612,"82":-0.1528136432170868,"83":1.4439698457717896,"84":-1.3033655881881714,"85":-1.1801434755325317,"86":0.25673556327819824,"87":-0.07328037917613983,"88":-0.5175268054008484,"89":0.5859063267707825,"90":-1.1232973337173462,"91":1.1822509765625,"92":-1.6460684537887573,"93":0.2783380150794983,"94":0.7077348828315735,"95":0.0823613777756691,"96":1.3085120916366577,"97":1.1832993030548096,"98":-1.0063705444335938,"99":0.25018638372421265,"100":-1.2900516986846924,"101":0.6698796153068542,"102":0.9159223437309265,"103":-0.7514874339103699,"104":0.17097735404968262,"105":0.541471540927887,"106":-1.1255831718444824,"107":0.6203128695487976,"108":-1.3229329586029053,"109":0.9371150135993958,"110":-1.6048270463943481,"111":-0.6859030723571777,"112":-1.237463116645813,"113":-0.6813594102859497,"114":-0.48772433400154114,"115":1.1918656826019287,"116":-0.689410388469696,"117":0.12485361844301224,"118":-0.698209285736084,"119":-0.5115906000137329,"120":-0.4114530384540558,"121":-0.5394389033317566,"122":0.3275523781776428,"123":-0.29212746024131775,"124":1.9009207487106323,"125":-0.16782210767269135,"126":1.4456346035003662,"127":0.014874477870762348,"128":-0.09598855674266815,"129":-0.4773217439651489,"130":-1.939530372619629,"131":0.19784870743751526,"132":-1.0780606269836426,"133":-0.7799957990646362,"134":0.7553675174713135,"135":-1.2420228719711304,"136":0.7454756498336792,"137":0.416178435087204,"138":0.12189194560050964,"139":0.3065277338027954,"140":-0.47247564792633057,"141":-1.9130302667617798,"142":2.799786329269409,"143":-0.705855131149292,"144":1.4026380777359009,"145":0.4344557523727417,"146":0.32723507285118103,"147":2.792389392852783,"148":1.1589183807373047,"149":0.4976010322570801,"150":1.5467437505722046,"151":-0.32256028056144714,"152":1.0436559915542603,"153":0.7213044762611389,"154":-0.022380834445357323,"155":-0.44442078471183777,"156":0.7667083740234375,"157":0.11989861726760864,"158":0.31846341490745544,"159":-0.3045390844345093,"160":0.19767089188098907,"161":-1.5665616989135742,"162":0.40099433064460754,"163":0.02872321754693985,"164":-0.8171528577804565,"165":0.9929869174957275,"166":-0.18978863954544067,"167":-0.6123499870300293,"168":0.5374791622161865,"169":0.18039347231388092,"170":-0.4205825924873352,"171":0.2555384337902069,"172":0.171770378947258,"173":0.5915218591690063,"174":-0.4085701107978821,"175":0.23811280727386475,"176":-0.20266246795654297,"177":1.051998257637024,"178":-0.09859886765480042,"179":0.10842029005289078,"180":-0.10898106545209885,"181":-0.3407573997974396,"182":-0.19980856776237488,"183":0.07292059808969498,"184":-0.10584259778261185,"185":-0.6991739273071289,"186":-0.5834344029426575,"187":-1.6570696830749512,"188":0.517922580242157,"189":-1.7247527837753296,"190":0.24543407559394836,"191":1.7123057842254639,"192":-0.5922112464904785,"193":1.3537195920944214,"194":-1.1227490901947021,"195":-0.9028654098510742,"196":0.6846107840538025,"197":2.0427818298339844,"198":1.420069932937622,"199":0.9860098361968994,"200":-1.0307918787002563,"201":1.793078064918518,"202":-0.5079416632652283,"203":0.7176514267921448,"204":-1.796512484550476,"205":0.9688162207603455,"206":-0.4570985436439514,"207":0.22189228236675262,"208":0.2421957105398178,"209":-0.45898717641830444,"210":0.3183623254299164,"211":0.46217867732048035,"212":-0.7941716313362122,"213":0.15522798895835876,"214":-0.2913876175880432,"215":0.4040476679801941,"216":-0.5519373416900635,"217":-0.2303374856710434,"218":0.15171180665493011,"219":-0.7644324898719788,"220":0.08983302861452103,"221":0.93345046043396,"222":-0.577419638633728,"223":-0.6306391358375549,"224":0.804742157459259,"225":0.9615640640258789,"226":-0.07441437244415283,"227":0.9472641348838806,"228":0.5352270007133484,"229":-1.4512711763381958,"230":0.3618989884853363,"231":0.716445803642273,"232":0.339304655790329,"233":0.2537749707698822,"234":-0.8970715999603271,"235":1.2110013961791992,"236":0.31986743211746216,"237":-0.2624838352203369,"238":-0.48724165558815,"239":-0.6638290882110596,"240":1.3727093935012817,"241":-0.6463415026664734,"242":-0.49967095255851746,"243":1.4474300146102905,"244":-2.001899242401123,"245":0.5568597316741943,"246":1.3270838260650635,"247":-0.6353176236152649,"248":-0.34094902873039246,"249":-1.0263274908065796,"250":-1.7343050241470337,"251":1.4315736293792725,"252":-1.1649402379989624,"253":0.8124970197677612,"254":-1.6590895652770996,"255":0.285225510597229,"256":-0.6173192262649536,"257":-0.048381779342889786,"258":0.6157981753349304,"259":-1.0557199716567993,"260":0.8962493538856506,"261":-0.8031383156776428,"262":0.6234322190284729,"263":-1.2346420288085938,"264":-1.0256807804107666,"265":-0.6899248957633972,"266":-0.5436717867851257,"267":-0.6758171916007996,"268":1.0185164213180542,"269":-0.6867993474006653,"270":0.5117851495742798,"271":-0.8616282343864441,"272":0.04878510534763336,"273":0.22517582774162292,"274":-0.6506804823875427,"275":1.263404369354248,"276":0.7482021450996399,"277":-1.7653563022613525,"278":-0.009126385673880577,"279":-1.823868751525879,"280":-1.6183865070343018,"281":0.04959234967827797,"282":0.6004651188850403,"283":2.519953966140747,"284":0.012622999958693981,"285":0.2625126540660858,"286":1.5206488370895386,"287":-0.1083732545375824,"288":0.9145328402519226,"289":0.08589251339435577,"290":-0.17511406540870667,"291":0.5556626319885254,"292":0.665475070476532,"293":-0.6790357232093811,"294":0.9239470958709717,"295":-0.8149800896644592,"296":0.41538119316101074,"297":-0.9304506778717041,"298":-0.6549981236457825,"299":-0.6865964531898499,"300":-0.6719868779182434,"301":-1.0114853382110596,"302":1.2854679822921753,"303":-1.0180999040603638,"304":0.23118190467357635,"305":-1.0168912410736084,"306":-0.03904379531741142,"307":0.35386979579925537,"308":-0.5920533537864685,"309":0.6055368781089783,"310":0.0858054906129837,"311":-0.32718604803085327,"312":0.8546507358551025,"313":0.2878913879394531,"314":0.024580134078860283,"315":-0.7904815673828125,"316":0.24144981801509857,"317":-0.2400311529636383,"318":1.256057858467102,"319":0.4011605381965637,"320":0.3323085606098175,"321":-0.5282902121543884,"322":0.7459498643875122,"323":0.8873840570449829,"324":2.281038284301758,"325":-0.4008326530456543,"326":0.11679242551326752,"327":1.5763192176818848,"328":-0.6071351170539856,"329":-1.6941794157028198,"330":-1.3169194459915161,"331":0.5908583402633667,"332":1.2473983764648438,"333":-1.0871586799621582,"334":1.382067084312439,"335":-0.9634196162223816,"336":0.2444574236869812,"337":-0.6811148524284363,"338":-1.6217331886291504,"339":0.883693516254425}},"cellActivationHidden":{"rows":20,"columns":20,"weights":{"0":-0.026531966403126717,"1":1.8948514461517334,"2":-1.651495337486267,"3":-0.3191199004650116,"4":0.31734704971313477,"5":-1.0236685276031494,"6":-1.2719088792800903,"7":1.0512031316757202,"8":-2.059091091156006,"9":0.2323354035615921,"10":0.8153738379478455,"11":-0.3147493302822113,"12":0.8064172863960266,"13":-1.1134145259857178,"14":0.6566779017448425,"15":0.2586435377597809,"16":-0.657517671585083,"17":0.8271888494491577,"18":-0.6300188302993774,"19":-1.4714792966842651,"20":0.7691790461540222,"21":4.198293685913086,"22":1.1582261323928833,"23":0.6353963613510132,"24":-0.39328333735466003,"25":0.24439212679862976,"26":-0.9675961136817932,"27":0.1305610090494156,"28":-0.008347696624696255,"29":-0.03245799243450165,"30":0.1639169454574585,"31":0.40582266449928284,"32":0.5375404953956604,"33":0.22774441540241241,"34":0.507066547870636,"35":-0.8705064654350281,"36":-0.2565292418003082,"37":-0.7068678140640259,"38":-1.277280330657959,"39":0.518057644367218,"40":-0.7518947124481201,"41":0.5112424492835999,"42":-1.2434524297714233,"43":0.36807528138160706,"44":1.461777925491333,"45":-2.6256701946258545,"46":-0.5584561228752136,"47":-0.12760135531425476,"48":-2.110729694366455,"49":0.35378944873809814,"50":0.9561367630958557,"51":-1.7959660291671753,"52":-2.1825993061065674,"53":-0.5502499341964722,"54":0.34769952297210693,"55":-1.1405750513076782,"56":-0.8789247274398804,"57":0.7683584094047546,"58":-0.39263176918029785,"59":1.0912179946899414,"60":0.02184893749654293,"61":0.38511624932289124,"62":-0.029365412890911102,"63":0.8584549427032471,"64":-0.5120442509651184,"65":-0.02833663672208786,"66":-1.0802030563354492,"67":-0.5989497303962708,"68":-0.1217796802520752,"69":-0.45306581258773804,"70":-0.27220261096954346,"71":-0.007769542280584574,"72":-0.19130471348762512,"73":0.012052037753164768,"74":-0.05262799188494682,"75":-1.0776207447052002,"76":-0.10932088643312454,"77":-0.5709337592124939,"78":-2.6449525356292725,"79":0.8108525276184082,"80":-0.0402725413441658,"81":-1.219965934753418,"82":-0.9480942487716675,"83":-1.0720226764678955,"84":-0.21540303528308868,"85":-0.7940446734428406,"86":-0.39596155285835266,"87":0.9384902119636536,"88":-1.3255491256713867,"89":-0.6633836627006531,"90":0.04917006939649582,"91":-0.6113653182983398,"92":0.14472179114818573,"93":-0.8343765139579773,"94":1.652256965637207,"95":0.7317519187927246,"96":-0.1387254297733307,"97":0.2822810411453247,"98":0.6454475522041321,"99":-1.5011616945266724,"100":0.44965770840644836,"101":1.0266683101654053,"102":0.031231094151735306,"103":0.9912233948707581,"104":1.4734768867492676,"105":0.01990590989589691,"106":4.013889789581299,"107":2.3820502758026123,"108":0.1619710624217987,"109":-0.4744148254394531,"110":-0.5392683744430542,"111":0.30354028940200806,"112":0.26747798919677734,"113":0.5870157480239868,"114":-0.96429842710495,"115":-0.9193367958068848,"116":0.03125666826963425,"117":-0.5442296266555786,"118":-0.11313621699810028,"119":0.35447120666503906,"120":-1.1656924486160278,"121":0.009628036990761757,"122":-0.2900906205177307,"123":-0.48841720819473267,"124":0.6270028352737427,"125":-0.8363015055656433,"126":-0.059407155960798264,"127":0.5828064680099487,"128":-0.9487410187721252,"129":0.7988991737365723,"130":0.4170876145362854,"131":-0.48041126132011414,"132":-1.0649454593658447,"133":-0.6608736515045166,"134":0.5882620215415955,"135":0.7472633719444275,"136":-0.9073613286018372,"137":0.37098461389541626,"138":2.535881280899048,"139":-0.8142545819282532,"140":0.33190804719924927,"141":0.4229683578014374,"142":-0.21557891368865967,"143":-0.1684037446975708,"144":0.0319221094250679,"145":-0.08316455781459808,"146":-2.725893497467041,"147":0.7346938252449036,"148":-0.19355109333992004,"149":-0.19005602598190308,"150":0.3300054669380188,"151":0.49884340167045593,"152":0.9613472819328308,"153":-0.695586085319519,"154":-0.1783214956521988,"155":-0.16166478395462036,"156":1.1063295602798462,"157":-0.21045733988285065,"158":-0.17377470433712006,"159":0.6604011058807373,"160":-0.6898204684257507,"161":-0.5855157971382141,"162":2.2434935569763184,"163":-0.3834439516067505,"164":1.6742981672286987,"165":-1.2705087661743164,"166":2.9344124794006348,"167":0.3412915766239166,"168":-1.0618364810943604,"169":-0.27358478307724,"170":0.9084473252296448,"171":-0.6535264253616333,"172":-2.0470097064971924,"173":0.2544693350791931,"174":-0.13902515172958374,"175":0.31257396936416626,"176":-1.2101366519927979,"177":1.270851492881775,"178":0.5600348114967346,"179":-0.1920885294675827,"180":0.3547675311565399,"181":-0.5722088813781738,"182":-0.7522314786911011,"183":-0.5382032990455627,"184":0.8870992064476013,"185":-1.2192327976226807,"186":0.5678621530532837,"187":1.4512790441513062,"188":-1.5454870462417603,"189":1.462483286857605,"190":-0.09002016484737396,"191":-0.4345273971557617,"192":-1.368185043334961,"193":-0.13818034529685974,"194":2.156416654586792,"195":0.15601739287376404,"196":0.5993884801864624,"197":0.6897114515304565,"198":0.3101521134376526,"199":-0.6966356039047241,"200":-0.14734457433223724,"201":-0.48838186264038086,"202":0.008749151602387428,"203":-1.8251280784606934,"204":0.3904164433479309,"205":-2.8206913471221924,"206":-0.4566574692726135,"207":1.1601464748382568,"208":-2.2839131355285645,"209":0.5534476041793823,"210":-0.3855583667755127,"211":-2.3792576789855957,"212":-1.320162057876587,"213":-0.6204260587692261,"214":2.605703353881836,"215":1.1397112607955933,"216":0.3997586965560913,"217":0.7073623538017273,"218":0.025004014372825623,"219":-1.28510582447052,"220":1.1298190355300903,"221":0.38199159502983093,"222":-0.1200418621301651,"223":0.48478516936302185,"224":0.3590933382511139,"225":0.06067291647195816,"226":-1.1519756317138672,"227":0.7032233476638794,"228":0.1371230036020279,"229":-0.3245905339717865,"230":-0.3741951286792755,"231":1.0538458824157715,"232":0.13784338533878326,"233":-0.4064330756664276,"234":0.16630209982395172,"235":-0.2557304799556732,"236":0.6061397194862366,"237":1.1434398889541626,"238":0.008927046321332455,"239":0.8741045594215393,"240":0.2571927309036255,"241":-0.09095431864261627,"242":1.4791754484176636,"243":-1.4607234001159668,"244":2.962999105453491,"245":-1.3339362144470215,"246":0.4836589992046356,"247":0.7233326435089111,"248":-1.5982930660247803,"249":2.6468777656555176,"250":1.419048547744751,"251":0.3660389482975006,"252":1.2774274349212646,"253":-0.6651695370674133,"254":0.6150557398796082,"255":2.029172420501709,"256":0.14274348318576813,"257":1.5686254501342773,"258":0.07879869639873505,"259":-0.46195247769355774,"260":-0.08787820488214493,"261":-0.12457867711782455,"262":-0.34433165192604065,"263":-0.5139248371124268,"264":0.44636526703834534,"265":-1.7905327081680298,"266":0.9426921606063843,"267":0.8240389823913574,"268":-2.1825666427612305,"269":0.35643041133880615,"270":0.47208166122436523,"271":-0.9496752023696899,"272":-2.2366561889648438,"273":-0.23989519476890564,"274":0.6140094995498657,"275":0.346318781375885,"276":0.02527724951505661,"277":1.4789562225341797,"278":-0.21577763557434082,"279":-0.02764185145497322,"280":1.419082522392273,"281":-0.5984519124031067,"282":0.16611041128635406,"283":-0.6792038083076477,"284":-0.02008862793445587,"285":0.053188495337963104,"286":-0.47191253304481506,"287":0.9947574138641357,"288":0.035095106810331345,"289":0.929477334022522,"290":0.3527553677558899,"291":1.4042539596557617,"292":0.39465683698654175,"293":0.1292780488729477,"294":0.9600362777709961,"295":0.603085458278656,"296":1.0829358100891113,"297":0.4562757611274719,"298":0.17735587060451508,"299":-0.5146903395652771,"300":-0.0036175374407321215,"301":-0.7029939889907837,"302":-0.44172191619873047,"303":-1.4315170049667358,"304":0.9761386513710022,"305":0.1174929216504097,"306":0.9292556643486023,"307":1.8382127285003662,"308":0.1718805879354477,"309":0.24064837396144867,"310":0.6820248961448669,"311":0.15583904087543488,"312":0.1561904400587082,"313":0.2932632267475128,"314":0.10099416971206665,"315":1.5195343494415283,"316":0.15961147844791412,"317":1.0014599561691284,"318":0.9887210130691528,"319":-0.591973602771759,"320":-0.12212635576725006,"321":-0.3631436228752136,"322":-0.22564679384231567,"323":-0.6478031277656555,"324":0.6631112098693848,"325":-0.6194496154785156,"326":0.0849434956908226,"327":0.15705271065235138,"328":0.09332488477230072,"329":-0.11249259859323502,"330":0.49102848768234253,"331":-0.1586170196533203,"332":-0.3265737295150757,"333":-0.35400816798210144,"334":-0.1296554058790207,"335":0.8434385061264038,"336":-0.05390419438481331,"337":0.4507434368133545,"338":0.9393206834793091,"339":-0.23961128294467926,"340":-0.07298154383897781,"341":-0.6515489816665649,"342":-0.6249357461929321,"343":-1.277809977531433,"344":0.32606106996536255,"345":0.11439449340105057,"346":0.9634641408920288,"347":0.8336629867553711,"348":0.12881988286972046,"349":0.5291092991828918,"350":-0.03566627576947212,"351":0.8798616528511047,"352":0.20654422044754028,"353":-0.159860298037529,"354":0.30005234479904175,"355":1.1393663883209229,"356":-0.043771132826805115,"357":0.4701506197452545,"358":1.2083758115768433,"359":-0.42848730087280273,"360":-0.6253146529197693,"361":-1.1233325004577637,"362":0.08475441485643387,"363":-1.1179174184799194,"364":0.7433199286460876,"365":-0.589175283908844,"366":-2.2292425632476807,"367":1.0149437189102173,"368":-0.635424017906189,"369":1.5070279836654663,"370":0.9933537840843201,"371":-0.3460032343864441,"372":0.13241593539714813,"373":1.5059489011764526,"374":1.0592985153198242,"375":1.0110394954681396,"376":1.0977044105529785,"377":1.3460925817489624,"378":1.1072691679000854,"379":-1.5120501518249512,"380":0.012017915956676006,"381":-0.3385638892650604,"382":0.37560752034187317,"383":1.949241280555725,"384":-1.462476372718811,"385":0.3412121534347534,"386":-0.9355368614196777,"387":-2.121901273727417,"388":0.8852066993713379,"389":-1.8757485151290894,"390":-0.09275861084461212,"391":0.8075260519981384,"392":0.3416157364845276,"393":0.07353232800960541,"394":0.5994951725006104,"395":-2.55700945854187,"396":-0.04195484146475792,"397":-1.7459230422973633,"398":0.9101006984710693,"399":-0.20231406390666962}},"cellActivationBias":{"rows":20,"columns":1,"weights":{"0":-1.524234414100647,"1":0.8154878616333008,"2":2.7651054859161377,"3":0.32889416813850403,"4":1.3389102220535278,"5":-1.4779767990112305,"6":3.323204517364502,"7":1.780834674835205,"8":0.9434877038002014,"9":2.5788614749908447,"10":0.8447360992431641,"11":-1.635184407234192,"12":1.4252458810806274,"13":1.448462963104248,"14":-0.6812217235565186,"15":-0.6031308770179749,"16":0.40601861476898193,"17":-0.6685634255409241,"18":-2.62070894241333,"19":1.1793291568756104}}},{"inputMatrix":{"rows":20,"columns":20,"weights":{"0":-1.9268215894699097,"1":-1.588243007659912,"2":0.8428068161010742,"3":-1.2093708515167236,"4":-2.6640450954437256,"5":0.03538372740149498,"6":0.9800173044204712,"7":3.2768285274505615,"8":-2.013275384902954,"9":-0.3718995749950409,"10":-0.8451476097106934,"11":-0.817884624004364,"12":1.3207091093063354,"13":1.1174578666687012,"14":1.6888823509216309,"15":0.7827056050300598,"16":-1.722039818763733,"17":-1.0045942068099976,"18":0.6326791048049927,"19":-1.514536738395691,"20":-0.7672792077064514,"21":2.2245843410491943,"22":2.113018035888672,"23":0.358743280172348,"24":-0.3058738112449646,"25":0.9425997734069824,"26":1.2299846410751343,"27":1.2539646625518799,"28":1.6329325437545776,"29":1.670211672782898,"30":0.3913156986236572,"31":0.587192714214325,"32":-1.0012080669403076,"33":3.8615825176239014,"34":2.742879867553711,"35":3.312325954437256,"36":-1.1313676834106445,"37":0.20380574464797974,"38":0.14029636979103088,"39":0.49271950125694275,"40":-1.4424155950546265,"41":-1.9326421022415161,"42":1.3815027475357056,"43":0.2494475543498993,"44":0.467357337474823,"45":-2.6522324085235596,"46":-1.0507968664169312,"47":0.18609677255153656,"48":-0.03809009864926338,"49":0.6912055015563965,"50":-1.322206974029541,"51":-0.6401594877243042,"52":4.087215423583984,"53":0.28517162799835205,"54":2.695380926132202,"55":0.41440439224243164,"56":-0.7471756935119629,"57":0.5575054883956909,"58":-0.8141574263572693,"59":1.829864263534546,"60":-1.8848636150360107,"61":-0.8585536479949951,"62":0.1353156566619873,"63":-1.4882140159606934,"64":0.217815101146698,"65":-1.7666741609573364,"66":1.6061733961105347,"67":1.0009174346923828,"68":-0.7459620237350464,"69":1.8164538145065308,"70":-0.16837073862552643,"71":-1.421374797821045,"72":-0.23907898366451263,"73":0.779900312423706,"74":-0.005894750356674194,"75":1.0303328037261963,"76":-0.8055433034896851,"77":0.22605584561824799,"78":0.6848331093788147,"79":-1.6723246574401855,"80":-0.9348596334457397,"81":0.6421342492103577,"82":3.1635823249816895,"83":2.48081374168396,"84":-1.0490087270736694,"85":0.12668780982494354,"86":-0.6269862055778503,"87":4.075669288635254,"88":2.1306943893432617,"89":0.5508967041969299,"90":1.581400752067566,"91":-0.8340032696723938,"92":1.6106643676757812,"93":0.6100459694862366,"94":-0.4368426501750946,"95":-4.235254764556885,"96":-0.172615647315979,"97":0.3156100809574127,"98":0.8208730816841125,"99":-1.9229819774627686,"100":-0.8812505006790161,"101":-0.4647277593612671,"102":-0.7430314421653748,"103":-0.48451685905456543,"104":0.012432017363607883,"105":-0.1130511537194252,"106":-3.9255053997039795,"107":2.324059247970581,"108":0.1050754114985466,"109":3.035651683807373,"110":-0.025092879310250282,"111":0.1984265148639679,"112":0.3605157136917114,"113":1.111910343170166,"114":0.6186788082122803,"115":0.35722827911376953,"116":-0.4820469319820404,"117":0.4715878963470459,"118":-1.6500576734542847,"119":-2.0989465713500977,"120":-0.011880368925631046,"121":0.13668406009674072,"122":-0.6593855619430542,"123":-0.17747566103935242,"124":0.5012361407279968,"125":2.5026607513427734,"126":-1.6084520816802979,"127":-4.879453182220459,"128":1.959652066230774,"129":-0.815207839012146,"130":1.3327053785324097,"131":-0.7728230357170105,"132":-0.6654959321022034,"133":0.005556158721446991,"134":-1.7115310430526733,"135":1.7015844583511353,"136":-0.11151612550020218,"137":-1.3713810443878174,"138":1.1668773889541626,"139":0.7901841402053833,"140":0.6199380159378052,"141":-0.6765727400779724,"142":-0.4528225362300873,"143":0.15031671524047852,"144":-0.19154556095600128,"145":-3.1444339752197266,"146":-0.39701390266418457,"147":-1.24757981300354,"148":-0.61380934715271,"149":-2.585016965866089,"150":0.9951236844062805,"151":0.7983995676040649,"152":-3.6918675899505615,"153":-0.31795695424079895,"154":1.230862021446228,"155":-0.027941085398197174,"156":0.5052608251571655,"157":-0.406443327665329,"158":-2.2601916790008545,"159":0.9939975142478943,"160":-0.5337057113647461,"161":-1.218989372253418,"162":-2.637239933013916,"163":-1.0829429626464844,"164":-2.456357002258301,"165":-1.5062110424041748,"166":-2.5690226554870605,"167":3.657888889312744,"168":-1.6638543605804443,"169":-1.1265794038772583,"170":1.2031607627868652,"171":0.1495392769575119,"172":-0.40700066089630127,"173":0.5945464372634888,"174":2.4059789180755615,"175":-0.19670790433883667,"176":-0.4926477372646332,"177":1.920167088508606,"178":0.6367555856704712,"179":-3.829319953918457,"180":-0.7820279002189636,"181":-4.222319602966309,"182":-0.702675461769104,"183":-0.2379462569952011,"184":0.701947808265686,"185":-1.9675939083099365,"186":-1.3845736980438232,"187":0.9642201662063599,"188":-1.8075917959213257,"189":4.141353130340576,"190":-0.02051243744790554,"191":-1.1621155738830566,"192":-1.1111164093017578,"193":0.2726890444755554,"194":-2.5474660396575928,"195":0.2623605728149414,"196":-0.7753112316131592,"197":1.2516549825668335,"198":0.14776811003684998,"199":-0.22264312207698822,"200":-0.653994083404541,"201":0.4532183110713959,"202":2.1082992553710938,"203":1.6996450424194336,"204":0.7755130529403687,"205":1.9232077598571777,"206":-0.6740928292274475,"207":-2.699368715286255,"208":1.762179970741272,"209":-1.1043657064437866,"210":0.39376628398895264,"211":-0.41151177883148193,"212":0.6534440517425537,"213":3.0160608291625977,"214":-3.1332874298095703,"215":0.6414304375648499,"216":-0.22804725170135498,"217":-1.526219129562378,"218":0.7303507328033447,"219":0.573352575302124,"220":2.1578314304351807,"221":-0.28545650839805603,"222":0.6528891921043396,"223":0.280190646648407,"224":-0.6225781440734863,"225":-1.2184760570526123,"226":-0.5892570614814758,"227":-1.2024494409561157,"228":-0.39307692646980286,"229":1.4877784252166748,"230":-0.580033540725708,"231":0.08291811496019363,"232":1.5358233451843262,"233":-0.3456650376319885,"234":-3.4320669174194336,"235":-0.6063376665115356,"236":0.35861948132514954,"237":0.8581133484840393,"238":-0.013438084162771702,"239":-0.01490993332117796,"240":0.36782607436180115,"241":1.878275990486145,"242":-0.2997109591960907,"243":1.3946294784545898,"244":-1.6220849752426147,"245":2.7052414417266846,"246":-3.227102518081665,"247":-1.1033881902694702,"248":3.0309011936187744,"249":-3.341599225997925,"250":0.1997087597846985,"251":1.0939602851867676,"252":1.7217665910720825,"253":-1.7266191244125366,"254":-0.6286044716835022,"255":-2.9211509227752686,"256":0.9262139797210693,"257":-0.5919869542121887,"258":-1.6304134130477905,"259":0.24067634344100952,"260":-0.35533732175827026,"261":1.1619272232055664,"262":1.1936990022659302,"263":0.9163792729377747,"264":0.33635827898979187,"265":1.1854058504104614,"266":0.8012997508049011,"267":-4.439856052398682,"268":1.323219656944275,"269":0.021789273247122765,"270":-1.458298921585083,"271":0.2079291045665741,"272":2.0512800216674805,"273":-0.4320250451564789,"274":0.5482761859893799,"275":-0.8492916226387024,"276":-0.06528370082378387,"277":-0.6741917729377747,"278":0.046100884675979614,"279":1.6464425325393677,"280":-0.725223183631897,"281":-2.73502516746521,"282":-0.2959393262863159,"283":-2.3666858673095703,"284":0.42159920930862427,"285":-0.9615482091903687,"286":-0.2126866728067398,"287":-0.10222634673118591,"288":-2.12463116645813,"289":1.0312652587890625,"290":-3.4226126670837402,"291":-0.23886020481586456,"292":-0.5270312428474426,"293":0.261015385389328,"294":1.5276392698287964,"295":-0.20211930572986603,"296":-0.6719522476196289,"297":-1.2589770555496216,"298":0.4099753797054291,"299":-1.1305114030838013,"300":-0.2030651867389679,"301":-1.804750919342041,"302":-0.8795047402381897,"303":1.3116023540496826,"304":0.3713703751564026,"305":3.861968517303467,"306":-2.348454475402832,"307":-4.226784706115723,"308":1.3232643604278564,"309":-0.3708667457103729,"310":1.3195439577102661,"311":0.09076490253210068,"312":1.1000369787216187,"313":-5.3578104972839355,"314":1.3147284984588623,"315":-6.4967780113220215,"316":0.2386816293001175,"317":0.04518268257379532,"318":-3.459491729736328,"319":1.9957166910171509,"320":0.5960754752159119,"321":2.808211088180542,"322":1.67400324344635,"323":0.3995196223258972,"324":0.009642901830375195,"325":2.0012311935424805,"326":0.2147025763988495,"327":-1.108412265777588,"328":2.2545363903045654,"329":-0.10792532563209534,"330":-0.9729995131492615,"331":0.7262846231460571,"332":0.8536728024482727,"333":0.5278428196907043,"334":0.542418360710144,"335":-0.6033841371536255,"336":-2.735323905944824,"337":-0.1292254477739334,"338":0.43681100010871887,"339":1.0995680093765259,"340":-0.7605909109115601,"341":-1.4508696794509888,"342":-1.5384868383407593,"343":-2.0432441234588623,"344":0.3847610652446747,"345":0.3475342094898224,"346":1.3865559101104736,"347":5.246419906616211,"348":-2.9079244136810303,"349":2.2818682193756104,"350":-0.1452694982290268,"351":0.054964400827884674,"352":-2.868830442428589,"353":0.28149574995040894,"354":-1.1972330808639526,"355":1.3556708097457886,"356":-1.1869505643844604,"357":0.9595489501953125,"358":2.159240245819092,"359":-1.7757176160812378,"360":-1.9525123834609985,"361":-2.1330976486206055,"362":1.4494646787643433,"363":-0.6706609129905701,"364":-1.0127569437026978,"365":-0.19592911005020142,"366":-2.6643118858337402,"367":5.502259731292725,"368":0.14472289383411407,"369":3.068699598312378,"370":0.73172527551651,"371":-1.5839133262634277,"372":-1.2421247959136963,"373":1.4700859785079956,"374":-0.18088385462760925,"375":1.252821683883667,"376":-2.9111783504486084,"377":-2.633366584777832,"378":0.19679510593414307,"379":-1.2918521165847778,"380":-0.6809526681900024,"381":-1.4305740594863892,"382":-0.3495279848575592,"383":-0.8035223484039307,"384":-0.5355437397956848,"385":0.8022995591163635,"386":1.134053349494934,"387":1.8913172483444214,"388":-1.0675660371780396,"389":2.676043748855591,"390":0.27928152680397034,"391":-0.9264276623725891,"392":-0.32067009806632996,"393":0.12639518082141876,"394":-0.5389688014984131,"395":0.504292368888855,"396":-0.6270895600318909,"397":0.3214535415172577,"398":0.6367243528366089,"399":-1.378328561782837}},"inputHidden":{"rows":20,"columns":20,"weights":{"0":0.189933180809021,"1":0.20010362565517426,"2":-1.34642493724823,"3":-0.887093186378479,"4":0.5041799545288086,"5":-0.8267410397529602,"6":-0.9978389143943787,"7":0.1496797502040863,"8":1.113891839981079,"9":1.3006190061569214,"10":-1.358048677444458,"11":-0.20093896985054016,"12":0.601885199546814,"13":0.7702164649963379,"14":-1.0777459144592285,"15":1.395585536956787,"16":2.0033788681030273,"17":-1.6562193632125854,"18":0.47171133756637573,"19":0.667977511882782,"20":3.8531906604766846,"21":6.858417510986328,"22":0.6027747988700867,"23":-0.3461746275424957,"24":-1.8600387573242188,"25":0.19936832785606384,"26":0.677028238773346,"27":-2.0867772102355957,"28":0.38839805126190186,"29":-0.11869345605373383,"30":1.271686315536499,"31":0.14890031516551971,"32":-0.7732089757919312,"33":0.696927547454834,"34":1.5284291505813599,"35":1.0897243022918701,"36":-0.8778109550476074,"37":0.6064318418502808,"38":-0.17613576352596283,"39":-0.2670520544052124,"40":-1.3838192224502563,"41":0.1672559231519699,"42":2.992187261581421,"43":-3.1789963245391846,"44":1.8410333395004272,"45":0.09379889070987701,"46":0.6393088698387146,"47":-1.4631881713867188,"48":-0.8577356338500977,"49":1.8722989559173584,"50":-0.0013007335364818573,"51":-0.9470812678337097,"52":-1.78475821018219,"53":-0.9383617043495178,"54":-4.373022556304932,"55":3.5815181732177734,"56":3.191377878189087,"57":-1.453771948814392,"58":-2.158839225769043,"59":1.4556324481964111,"60":3.7334723472595215,"61":-0.7314175367355347,"62":0.12590089440345764,"63":-1.1190433502197266,"64":1.0528236627578735,"65":-2.697697162628174,"66":0.9845299124717712,"67":1.1518288850784302,"68":1.9398432970046997,"69":0.6676413416862488,"70":1.9888590574264526,"71":-0.27595284581184387,"72":1.0374423265457153,"73":1.054865837097168,"74":-0.14023980498313904,"75":0.6469417810440063,"76":0.33317288756370544,"77":-1.8628196716308594,"78":1.4613864421844482,"79":0.6330302357673645,"80":-1.2628616094589233,"81":0.9141513109207153,"82":0.47537046670913696,"83":-2.0830256938934326,"84":-2.0416948795318604,"85":-1.9789810180664062,"86":-0.8961299061775208,"87":3.3978915214538574,"88":1.4577395915985107,"89":1.3459933996200562,"90":-1.0772874355316162,"91":0.30864864587783813,"92":1.2342060804367065,"93":0.30730679631233215,"94":-0.9495376944541931,"95":-0.552230954170227,"96":1.2934414148330688,"97":2.99504017829895,"98":0.1702912449836731,"99":0.177056685090065,"100":-5.908435344696045,"101":-0.7003504037857056,"102":-3.235772132873535,"103":-3.595533609390259,"104":6.45417594909668,"105":-2.633151054382324,"106":0.7659924626350403,"107":2.2059741020202637,"108":-0.562389075756073,"109":3.973339796066284,"110":-2.162487268447876,"111":1.3977715969085693,"112":-1.2056028842926025,"113":-0.8610756397247314,"114":1.7850341796875,"115":0.9578853845596313,"116":-1.0034222602844238,